{
    "Layers": [
        null,
        null,
        {
            "Biases": [
                {
                    "weight": -0.02184544342190281
                },
                {
                    "weight": -0.06840083675384556
                },
                {
                    "weight": -0.01951147771417694
                },
                {
                    "weight": -0.3907444705025966
                },
                {
                    "weight": 0.4627161644178984
                },
                {
                    "weight": 0.0863225880294678
                },
                {
                    "weight": -0.05388424026960703
                },
                {
                    "weight": -0.18513854311087102
                },
                {
                    "weight": -0.30627980023449275
                },
                {
                    "weight": 0.18988316081458845
                },
                {
                    "weight": 0.30605662741514694
                },
                {
                    "weight": -0.09438032784237538
                },
                {
                    "weight": -0.46924781786708525
                },
                {
                    "weight": 0.353638856566343
                },
                {
                    "weight": -0.21696787280355018
                },
                {
                    "weight": -0.29229603433622797
                },
                {
                    "weight": 0.08151210843655854
                },
                {
                    "weight": -0.3165034939891209
                },
                {
                    "weight": 0.18543728935785464
                },
                {
                    "weight": 0.30036764532810434
                },
                {
                    "weight": 0.4580857818331968
                },
                {
                    "weight": 0.07445893883447119
                },
                {
                    "weight": 0.38222856995287746
                },
                {
                    "weight": 0.4477485910326935
                },
                {
                    "weight": 0.45329039507233093
                },
                {
                    "weight": -0.372148096515866
                },
                {
                    "weight": -0.07550772584765575
                },
                {
                    "weight": 0.13214376134432093
                },
                {
                    "weight": -0.3259421050809054
                },
                {
                    "weight": 0.10123924344835766
                },
                {
                    "weight": 0.13785759527136465
                },
                {
                    "weight": -0.3315945815907766
                },
                {
                    "weight": 0.06658145737675081
                },
                {
                    "weight": 0.03685194220247301
                },
                {
                    "weight": -0.27246425310730205
                },
                {
                    "weight": 0.2545822330678731
                },
                {
                    "weight": -0.3620966428667757
                },
                {
                    "weight": -0.20721512160134276
                },
                {
                    "weight": -0.04995990247929466
                },
                {
                    "weight": 0.4878192385974429
                },
                {
                    "weight": -0.13624565922946003
                },
                {
                    "weight": -0.39711944829072776
                },
                {
                    "weight": 0.04756122969908694
                },
                {
                    "weight": 0.14114372556616728
                },
                {
                    "weight": -0.1825469389476566
                },
                {
                    "weight": 0.10007699810903381
                },
                {
                    "weight": 0.04281415899415231
                },
                {
                    "weight": -0.24227060672467138
                },
                {
                    "weight": -0.24848545453906318
                },
                {
                    "weight": -0.39788469945447735
                },
                {
                    "weight": -0.4228338238889509
                },
                {
                    "weight": 0.24232736424185675
                },
                {
                    "weight": 0.2311286967718642
                },
                {
                    "weight": -0.22713938866608746
                },
                {
                    "weight": -0.02438720883074552
                },
                {
                    "weight": 0.38171850884878933
                },
                {
                    "weight": -0.12776543582685546
                },
                {
                    "weight": 0.024328866849806507
                },
                {
                    "weight": 0.10267469859806577
                },
                {
                    "weight": -0.08118874500095319
                },
                {
                    "weight": -0.06761580203548806
                },
                {
                    "weight": -0.010339029515320008
                },
                {
                    "weight": -0.4480314810145793
                },
                {
                    "weight": 0.31248711477615276
                },
                {
                    "weight": 0.44232743652645845
                },
                {
                    "weight": -0.0004124477414472194
                },
                {
                    "weight": 0.32648817434277766
                },
                {
                    "weight": 0.3654459884322463
                },
                {
                    "weight": -0.24585151539456634
                },
                {
                    "weight": 0.27532985678656485
                },
                {
                    "weight": -0.06630889158524056
                },
                {
                    "weight": -0.1233878331693764
                },
                {
                    "weight": 0.34705490351517443
                },
                {
                    "weight": 0.19726246218069576
                },
                {
                    "weight": 0.2725782982923921
                },
                {
                    "weight": 0.19917885446417094
                },
                {
                    "weight": 0.3895363879341336
                },
                {
                    "weight": -0.484483979490811
                },
                {
                    "weight": 0.2387707989238067
                },
                {
                    "weight": 0.05305314104680581
                },
                {
                    "weight": -0.3184264606602613
                },
                {
                    "weight": -0.30428987770541094
                },
                {
                    "weight": -0.4040542102251454
                },
                {
                    "weight": -0.16329198843487164
                },
                {
                    "weight": 0.20942490141346348
                },
                {
                    "weight": -0.36164481310716123
                },
                {
                    "weight": 0.16823855246335206
                },
                {
                    "weight": 0.014526748962014335
                },
                {
                    "weight": -0.01960406958107097
                },
                {
                    "weight": -0.2665278253781273
                },
                {
                    "weight": 0.1305269478776152
                },
                {
                    "weight": -0.028876880341617783
                },
                {
                    "weight": 0.2975467051693922
                },
                {
                    "weight": -0.16848789190803087
                },
                {
                    "weight": -0.17215459493089214
                },
                {
                    "weight": -0.024995723937170422
                },
                {
                    "weight": 0.4476258775813625
                },
                {
                    "weight": 0.45417821308792483
                },
                {
                    "weight": -0.47742658800791327
                },
                {
                    "weight": 0.33077872226050997
                }
            ],
            "Perceptrons": [
                {
                    "Weights": [
                        {
                            "weight": -0.21396960996276215
                        },
                        {
                            "weight": -0.48158234000279676
                        },
                        {
                            "weight": -0.18935717383835332
                        },
                        {
                            "weight": -0.26348109803790276
                        },
                        {
                            "weight": 0.12414685985266549
                        },
                        {
                            "weight": 0.22797728126308747
                        },
                        {
                            "weight": -0.36105723314502147
                        },
                        {
                            "weight": 0.09663970115438092
                        },
                        {
                            "weight": 0.14519291540849621
                        },
                        {
                            "weight": -0.4723016174800236
                        },
                        {
                            "weight": -0.028027431745094922
                        },
                        {
                            "weight": -0.16518744880109437
                        },
                        {
                            "weight": 0.031055724435046228
                        },
                        {
                            "weight": -0.29281175058465997
                        },
                        {
                            "weight": 0.2397768895327006
                        },
                        {
                            "weight": 0.34068073571225665
                        },
                        {
                            "weight": -0.18508475585146095
                        },
                        {
                            "weight": -0.14438948291092618
                        },
                        {
                            "weight": -0.050821564933667684
                        },
                        {
                            "weight": -0.06861166156763754
                        },
                        {
                            "weight": -0.047626183870074446
                        },
                        {
                            "weight": 0.09469148710122866
                        },
                        {
                            "weight": 0.35406743186715406
                        },
                        {
                            "weight": -0.384717093005179
                        },
                        {
                            "weight": -0.03166369555129839
                        },
                        {
                            "weight": 0.499565525683372
                        },
                        {
                            "weight": 0.23669306745133034
                        },
                        {
                            "weight": -0.4518394344867391
                        },
                        {
                            "weight": 0.377533197695172
                        },
                        {
                            "weight": -0.4313758505002483
                        },
                        {
                            "weight": 0.42942679557922614
                        },
                        {
                            "weight": -0.10300553444912913
                        },
                        {
                            "weight": -0.30431593968268295
                        },
                        {
                            "weight": -0.25993037872013186
                        },
                        {
                            "weight": 0.12351336751296804
                        },
                        {
                            "weight": 0.3098309201699825
                        },
                        {
                            "weight": 0.45804690254295566
                        },
                        {
                            "weight": 0.25245613436794656
                        },
                        {
                            "weight": -0.09352937867563654
                        },
                        {
                            "weight": 0.10323981795145198
                        },
                        {
                            "weight": 0.270154516887923
                        },
                        {
                            "weight": 0.3684431895792686
                        },
                        {
                            "weight": 0.4280523691503575
                        },
                        {
                            "weight": -0.19878975913803548
                        },
                        {
                            "weight": -0.4243685614663961
                        },
                        {
                            "weight": 0.1678292582220534
                        },
                        {
                            "weight": -0.3581090238867835
                        },
                        {
                            "weight": -0.11945331731785708
                        },
                        {
                            "weight": -0.4765602246888728
                        },
                        {
                            "weight": 0.08106941164055348
                        },
                        {
                            "weight": 0.3019350215755101
                        },
                        {
                            "weight": -0.03418640855894722
                        },
                        {
                            "weight": -0.32423910171922254
                        },
                        {
                            "weight": 0.1560024529816595
                        },
                        {
                            "weight": 0.07109649843587373
                        },
                        {
                            "weight": 0.134097202729479
                        },
                        {
                            "weight": 0.1555679782040268
                        },
                        {
                            "weight": -0.1922104345738005
                        },
                        {
                            "weight": 0.17225776824273997
                        },
                        {
                            "weight": 0.03310117589919881
                        },
                        {
                            "weight": -0.13358628461304412
                        },
                        {
                            "weight": 0.10168456336096143
                        },
                        {
                            "weight": 0.4200956414500697
                        },
                        {
                            "weight": 0.052097775704272986
                        },
                        {
                            "weight": 0.3317541846408295
                        },
                        {
                            "weight": 0.043609008502033086
                        },
                        {
                            "weight": -0.13807130412574453
                        },
                        {
                            "weight": 0.2898010867227805
                        },
                        {
                            "weight": -0.20393485759102498
                        },
                        {
                            "weight": 0.25839931719861886
                        },
                        {
                            "weight": -0.10695909578677226
                        },
                        {
                            "weight": -0.433780340703102
                        },
                        {
                            "weight": 0.12684250631688287
                        },
                        {
                            "weight": -0.1789067270974194
                        },
                        {
                            "weight": -0.14257009984113744
                        },
                        {
                            "weight": 0.19247394485048663
                        },
                        {
                            "weight": 0.4789225315856387
                        },
                        {
                            "weight": -0.010679123266916335
                        },
                        {
                            "weight": -0.4269793724673704
                        },
                        {
                            "weight": 0.49236230689676586
                        },
                        {
                            "weight": -0.42960971208736753
                        },
                        {
                            "weight": 0.3649556491081397
                        },
                        {
                            "weight": -0.04182410212318605
                        },
                        {
                            "weight": -0.2638488138065901
                        },
                        {
                            "weight": 0.020958101628794412
                        },
                        {
                            "weight": -0.47072760368731226
                        },
                        {
                            "weight": 0.3602483889228889
                        },
                        {
                            "weight": -0.3234739201671788
                        },
                        {
                            "weight": -0.17293803826111276
                        },
                        {
                            "weight": 0.03250615670462431
                        },
                        {
                            "weight": 0.19962725573202011
                        },
                        {
                            "weight": 0.18347567712584312
                        },
                        {
                            "weight": -0.365809280395419
                        },
                        {
                            "weight": 0.11972289672108505
                        },
                        {
                            "weight": -0.264426547169884
                        },
                        {
                            "weight": 0.45594490424541056
                        },
                        {
                            "weight": -0.33666809523788654
                        },
                        {
                            "weight": 0.08750214870437145
                        },
                        {
                            "weight": 0.24574599050718637
                        },
                        {
                            "weight": -0.050602952828911585
                        }
                    ]
                },
                {
                    "Weights": [
                        {
                            "weight": -0.10985934073564563
                        },
                        {
                            "weight": -0.003157239148000812
                        },
                        {
                            "weight": 0.4627439717588685
                        },
                        {
                            "weight": -0.05011983237700529
                        },
                        {
                            "weight": 0.3530466070878536
                        },
                        {
                            "weight": 0.15521791614835057
                        },
                        {
                            "weight": -0.07119730125237134
                        },
                        {
                            "weight": -0.15763251664006733
                        },
                        {
                            "weight": 0.21823854368098006
                        },
                        {
                            "weight": -0.07883499481661016
                        },
                        {
                            "weight": -0.09724222872743482
                        },
                        {
                            "weight": 0.08319419232811509
                        },
                        {
                            "weight": 0.3693409035212085
                        },
                        {
                            "weight": 0.12890895746597497
                        },
                        {
                            "weight": -0.39584770604309055
                        },
                        {
                            "weight": 0.38861329983389625
                        },
                        {
                            "weight": -0.010842654072140634
                        },
                        {
                            "weight": -0.2293216262102693
                        },
                        {
                            "weight": -0.2843247388882212
                        },
                        {
                            "weight": -0.47833649782852106
                        },
                        {
                            "weight": 0.4603056295217507
                        },
                        {
                            "weight": 0.3891509386986266
                        },
                        {
                            "weight": -0.3541457782239401
                        },
                        {
                            "weight": 0.08002852578183095
                        },
                        {
                            "weight": -0.3752756089322621
                        },
                        {
                            "weight": -0.3982008744395342
                        },
                        {
                            "weight": 0.2333604305439444
                        },
                        {
                            "weight": 0.20222653977210936
                        },
                        {
                            "weight": 0.33754511606765214
                        },
                        {
                            "weight": -0.3172425227459718
                        },
                        {
                            "weight": -0.4518719952469096
                        },
                        {
                            "weight": 0.4663320107880663
                        },
                        {
                            "weight": 0.1783741841830193
                        },
                        {
                            "weight": -0.4891280239490457
                        },
                        {
                            "weight": -0.083787821588939
                        },
                        {
                            "weight": 0.03142079080986826
                        },
                        {
                            "weight": 0.1560898921993048
                        },
                        {
                            "weight": 0.3350148771586897
                        },
                        {
                            "weight": 0.363788274169801
                        },
                        {
                            "weight": -0.12567156411971503
                        },
                        {
                            "weight": -0.24382011765792044
                        },
                        {
                            "weight": -0.23345395501863864
                        },
                        {
                            "weight": 0.44752262820840005
                        },
                        {
                            "weight": -0.3744792145977166
                        },
                        {
                            "weight": 0.38545500244733655
                        },
                        {
                            "weight": -0.4483250782956952
                        },
                        {
                            "weight": -0.485865915224825
                        },
                        {
                            "weight": -0.12538765208580888
                        },
                        {
                            "weight": -0.1876467045059645
                        },
                        {
                            "weight": -0.2801906541130462
                        },
                        {
                            "weight": -0.11372414991432994
                        },
                        {
                            "weight": -0.22734107544521848
                        },
                        {
                            "weight": -0.3910397158754243
                        },
                        {
                            "weight": 0.022130071861729994
                        },
                        {
                            "weight": 0.3426874503366125
                        },
                        {
                            "weight": -0.2763153248076864
                        },
                        {
                            "weight": 0.11392919742219576
                        },
                        {
                            "weight": 0.07604788041955224
                        },
                        {
                            "weight": 0.41591121496442307
                        },
                        {
                            "weight": -0.04852568697115667
                        },
                        {
                            "weight": 0.24880535813458515
                        },
                        {
                            "weight": 0.4540392197175134
                        },
                        {
                            "weight": -0.08219367618309043
                        },
                        {
                            "weight": -0.07282045814340021
                        },
                        {
                            "weight": 0.4549111957684677
                        },
                        {
                            "weight": 0.3240185022279706
                        },
                        {
                            "weight": 0.44860033266646804
                        },
                        {
                            "weight": 0.11100108796777253
                        },
                        {
                            "weight": 0.15903337892565572
                        },
                        {
                            "weight": 0.3123886063752642
                        },
                        {
                            "weight": 0.4753295238480575
                        },
                        {
                            "weight": 0.40521326126773527
                        },
                        {
                            "weight": -0.421065349104379
                        },
                        {
                            "weight": 0.42285215159545286
                        },
                        {
                            "weight": -0.46926595379098596
                        },
                        {
                            "weight": 0.45438965334295744
                        },
                        {
                            "weight": 0.4645270737607624
                        },
                        {
                            "weight": -0.46513186901581094
                        },
                        {
                            "weight": -0.1709979992038561
                        },
                        {
                            "weight": -0.22311963120620681
                        },
                        {
                            "weight": -0.2553225226678525
                        },
                        {
                            "weight": 0.20527785088181394
                        },
                        {
                            "weight": 0.039539293809579434
                        },
                        {
                            "weight": -0.15636223854327674
                        },
                        {
                            "weight": -0.27259207771746075
                        },
                        {
                            "weight": -0.11777325631481284
                        },
                        {
                            "weight": 0.05732243711004148
                        },
                        {
                            "weight": 0.3313371197047351
                        },
                        {
                            "weight": 0.4482746245657442
                        },
                        {
                            "weight": -0.02676634838654024
                        },
                        {
                            "weight": -0.21718856772742634
                        },
                        {
                            "weight": 0.19707998223932466
                        },
                        {
                            "weight": -0.07272712866902681
                        },
                        {
                            "weight": 0.19061775608948328
                        },
                        {
                            "weight": -0.37574047636508034
                        },
                        {
                            "weight": -0.11781593336156376
                        },
                        {
                            "weight": 0.014636257856449286
                        },
                        {
                            "weight": -0.427140144159617
                        },
                        {
                            "weight": 0.4831851546062087
                        },
                        {
                            "weight": -0.3263303632178951
                        }
                    ]
                },
                {
                    "Weights": [
                        {
                            "weight": 0.4585146779932615
                        },
                        {
                            "weight": -0.4211171024111645
                        },
                        {
                            "weight": 0.44418311311126835
                        },
                        {
                            "weight": 0.3813668295887144
                        },
                        {
                            "weight": -0.40038305574114574
                        },
                        {
                            "weight": 0.3985727659932211
                        },
                        {
                            "weight": 0.3458939028884721
                        },
                        {
                            "weight": -0.3755149247569567
                        },
                        {
                            "weight": -0.2724252336716397
                        },
                        {
                            "weight": -0.37722572877873933
                        },
                        {
                            "weight": -0.14083744742480914
                        },
                        {
                            "weight": 0.4228526172101743
                        },
                        {
                            "weight": 0.15231356503084004
                        },
                        {
                            "weight": 0.19280031449291868
                        },
                        {
                            "weight": -0.3497394609682911
                        },
                        {
                            "weight": -0.4654596912839728
                        },
                        {
                            "weight": -0.24987724885804452
                        },
                        {
                            "weight": 0.471597658736444
                        },
                        {
                            "weight": 0.4728149332817714
                        },
                        {
                            "weight": 0.21335640275541523
                        },
                        {
                            "weight": -0.24559090945198708
                        },
                        {
                            "weight": 0.16989491506009124
                        },
                        {
                            "weight": -0.3593707263746162
                        },
                        {
                            "weight": 0.4350268470985008
                        },
                        {
                            "weight": 0.2841544386950109
                        },
                        {
                            "weight": 0.012813340724824651
                        },
                        {
                            "weight": -0.05033689550605458
                        },
                        {
                            "weight": 0.347014294535394
                        },
                        {
                            "weight": -0.004001505129971328
                        },
                        {
                            "weight": 0.11333274127605031
                        },
                        {
                            "weight": 0.22226275629003667
                        },
                        {
                            "weight": -0.04548682713670971
                        },
                        {
                            "weight": 0.18221563932589047
                        },
                        {
                            "weight": 0.16644586894030022
                        },
                        {
                            "weight": -0.16411999800899996
                        },
                        {
                            "weight": 0.2718325835847448
                        },
                        {
                            "weight": 0.06501863447251666
                        },
                        {
                            "weight": -0.3182260955815325
                        },
                        {
                            "weight": 0.386317658827788
                        },
                        {
                            "weight": 0.282593400800877
                        },
                        {
                            "weight": -0.20545182436027182
                        },
                        {
                            "weight": -0.2545197885970212
                        },
                        {
                            "weight": 0.20544601755004654
                        },
                        {
                            "weight": 0.43686174113157283
                        },
                        {
                            "weight": 0.4282805258958975
                        },
                        {
                            "weight": 0.3457065565817554
                        },
                        {
                            "weight": 0.4614020498476
                        },
                        {
                            "weight": -0.3215967234231516
                        },
                        {
                            "weight": 0.3173042148571946
                        },
                        {
                            "weight": 0.4342169826683667
                        },
                        {
                            "weight": 0.3817596793322636
                        },
                        {
                            "weight": -0.4282866950557971
                        },
                        {
                            "weight": 0.10411189726745329
                        },
                        {
                            "weight": -0.47761104704235263
                        },
                        {
                            "weight": 0.4967401520427037
                        },
                        {
                            "weight": -0.11173366449854039
                        },
                        {
                            "weight": 0.025202293682471955
                        },
                        {
                            "weight": -0.053596743463350804
                        },
                        {
                            "weight": -0.26471937042415117
                        },
                        {
                            "weight": -0.478799211908504
                        },
                        {
                            "weight": -0.4402640026483051
                        },
                        {
                            "weight": 0.4475433858658855
                        },
                        {
                            "weight": -0.03428603904521371
                        },
                        {
                            "weight": 0.23195163667758534
                        },
                        {
                            "weight": 0.11398925434518115
                        },
                        {
                            "weight": 0.2915939629457862
                        },
                        {
                            "weight": 0.0037842198013253725
                        },
                        {
                            "weight": -0.320992111643307
                        },
                        {
                            "weight": 0.46336786736425384
                        },
                        {
                            "weight": -0.1098981213708865
                        },
                        {
                            "weight": 0.45160128915757003
                        },
                        {
                            "weight": -0.2420839569960181
                        },
                        {
                            "weight": 0.12558209003209242
                        },
                        {
                            "weight": 0.1570473062466119
                        },
                        {
                            "weight": -0.3052222163254499
                        },
                        {
                            "weight": 0.05386261546698523
                        },
                        {
                            "weight": 0.002753862367362636
                        },
                        {
                            "weight": -0.3438201669388544
                        },
                        {
                            "weight": 0.22226589204383362
                        },
                        {
                            "weight": -0.17994192323644737
                        },
                        {
                            "weight": -0.4096031847314924
                        },
                        {
                            "weight": 0.10402557091509257
                        },
                        {
                            "weight": -0.1182286182922444
                        },
                        {
                            "weight": 0.1845087125359609
                        },
                        {
                            "weight": 0.11641452387273987
                        },
                        {
                            "weight": -0.12148846624954068
                        },
                        {
                            "weight": -0.42722495242358416
                        },
                        {
                            "weight": -0.35838318290579285
                        },
                        {
                            "weight": 0.31491479028710856
                        },
                        {
                            "weight": -0.20194432284773528
                        },
                        {
                            "weight": -0.3471823943532921
                        },
                        {
                            "weight": 0.36465078763880343
                        },
                        {
                            "weight": -0.25440093744285447
                        },
                        {
                            "weight": 0.1085315666014941
                        },
                        {
                            "weight": 0.09660242431638877
                        },
                        {
                            "weight": 0.3495883169023265
                        },
                        {
                            "weight": -0.09987447045271958
                        },
                        {
                            "weight": -0.3996133563432905
                        },
                        {
                            "weight": -0.47140379520198505
                        },
                        {
                            "weight": -0.13650660354947047
                        }
                    ]
                },
                {
                    "Weights": [
                        {
                            "weight": 0.47019749395558497
                        },
                        {
                            "weight": 0.11140943945451154
                        },
                        {
                            "weight": -0.3939293881430893
                        },
                        {
                            "weight": 0.12724479974119218
                        },
                        {
                            "weight": 0.29618722312906154
                        },
                        {
                            "weight": 0.1499332273238958
                        },
                        {
                            "weight": -0.37000133835244986
                        },
                        {
                            "weight": 0.4423670561902071
                        },
                        {
                            "weight": -0.1278008810932752
                        },
                        {
                            "weight": -0.05994326158889718
                        },
                        {
                            "weight": -0.4672361290022899
                        },
                        {
                            "weight": 0.466224690282822
                        },
                        {
                            "weight": 0.3118281201188584
                        },
                        {
                            "weight": 0.20727258353367095
                        },
                        {
                            "weight": 0.08263921369455718
                        },
                        {
                            "weight": -0.30966034659168695
                        },
                        {
                            "weight": 0.2700476311100869
                        },
                        {
                            "weight": 0.2142560312497691
                        },
                        {
                            "weight": 0.4952544436954216
                        },
                        {
                            "weight": -0.4318966921986531
                        },
                        {
                            "weight": 0.35707363689647686
                        },
                        {
                            "weight": 0.3599052313342249
                        },
                        {
                            "weight": -0.1962976296415076
                        },
                        {
                            "weight": -0.03439479696303366
                        },
                        {
                            "weight": -0.04349234481039099
                        },
                        {
                            "weight": -0.34670931320018566
                        },
                        {
                            "weight": 0.3557307325842468
                        },
                        {
                            "weight": 0.04689429884631846
                        },
                        {
                            "weight": -0.3281131084021708
                        },
                        {
                            "weight": -0.2807758709652237
                        },
                        {
                            "weight": -0.4726171788678585
                        },
                        {
                            "weight": -0.3579156149075905
                        },
                        {
                            "weight": 0.3206335684892877
                        },
                        {
                            "weight": -0.3765465670109478
                        },
                        {
                            "weight": 0.2593291848336017
                        },
                        {
                            "weight": 0.11682079161834946
                        },
                        {
                            "weight": 0.2633866607739528
                        },
                        {
                            "weight": 0.3793278464811518
                        },
                        {
                            "weight": 0.05918784734755189
                        },
                        {
                            "weight": -0.3644142207803271
                        },
                        {
                            "weight": -0.1806154155687501
                        },
                        {
                            "weight": 0.08195171880626662
                        },
                        {
                            "weight": -0.3981895309585098
                        },
                        {
                            "weight": -0.36878729544989175
                        },
                        {
                            "weight": -0.210775698121067
                        },
                        {
                            "weight": 0.17444968319705212
                        },
                        {
                            "weight": -0.1884476420415787
                        },
                        {
                            "weight": -0.4407280670109801
                        },
                        {
                            "weight": -0.11129428601418356
                        },
                        {
                            "weight": -0.19319319834615722
                        },
                        {
                            "weight": -0.38262475920963324
                        },
                        {
                            "weight": -0.2542206495787113
                        },
                        {
                            "weight": -0.33328796747293693
                        },
                        {
                            "weight": -0.08892238839013611
                        },
                        {
                            "weight": 0.20138455345825512
                        },
                        {
                            "weight": 0.11321968771667201
                        },
                        {
                            "weight": 0.05436829840967816
                        },
                        {
                            "weight": 0.05711528604250182
                        },
                        {
                            "weight": -0.3398860138980141
                        },
                        {
                            "weight": 0.21625519046851216
                        },
                        {
                            "weight": 0.2663394150772781
                        },
                        {
                            "weight": -0.3225031927658726
                        },
                        {
                            "weight": 0.34833957556092165
                        },
                        {
                            "weight": 0.08697298310556123
                        },
                        {
                            "weight": -0.20904975931581565
                        },
                        {
                            "weight": 0.10766876039452333
                        },
                        {
                            "weight": -0.29620622573709404
                        },
                        {
                            "weight": -0.4456630990028675
                        },
                        {
                            "weight": -0.013003393585329592
                        },
                        {
                            "weight": 0.25298162207146246
                        },
                        {
                            "weight": -0.3200773197831946
                        },
                        {
                            "weight": 0.296381191306925
                        },
                        {
                            "weight": -0.1650666595832755
                        },
                        {
                            "weight": -0.2282668502806997
                        },
                        {
                            "weight": 0.4175938958570332
                        },
                        {
                            "weight": 0.1141576422956575
                        },
                        {
                            "weight": 0.4361828329163524
                        },
                        {
                            "weight": -0.2708537466455501
                        },
                        {
                            "weight": 0.1634295752846774
                        },
                        {
                            "weight": -0.1751114535588359
                        },
                        {
                            "weight": 0.025953055008292703
                        },
                        {
                            "weight": 0.2708048165360487
                        },
                        {
                            "weight": 0.060667896862452886
                        },
                        {
                            "weight": 0.1826650875353557
                        },
                        {
                            "weight": -0.31811757231509197
                        },
                        {
                            "weight": -0.23794755014029684
                        },
                        {
                            "weight": -0.2041152252089769
                        },
                        {
                            "weight": 0.22625072609458619
                        },
                        {
                            "weight": 0.30916773590220503
                        },
                        {
                            "weight": -0.05400123864598633
                        },
                        {
                            "weight": -0.05749408389790639
                        },
                        {
                            "weight": 0.07550715051847845
                        },
                        {
                            "weight": 0.11349556858814114
                        },
                        {
                            "weight": -0.2091545083369848
                        },
                        {
                            "weight": -0.3375198663759603
                        },
                        {
                            "weight": 0.39444580927232553
                        },
                        {
                            "weight": 0.38851425205753853
                        },
                        {
                            "weight": -0.14372609211305437
                        },
                        {
                            "weight": 0.43878271026945803
                        },
                        {
                            "weight": -0.12448914198879579
                        }
                    ]
                },
                {
                    "Weights": [
                        {
                            "weight": -0.3812946095137366
                        },
                        {
                            "weight": -0.32810795114287544
                        },
                        {
                            "weight": -0.06581113008587208
                        },
                        {
                            "weight": -0.11956145979443633
                        },
                        {
                            "weight": -0.41051405574684685
                        },
                        {
                            "weight": -0.4516534877902146
                        },
                        {
                            "weight": -0.1833786273390886
                        },
                        {
                            "weight": -0.1913678019313923
                        },
                        {
                            "weight": 0.20177608749446274
                        },
                        {
                            "weight": 0.13150991910207543
                        },
                        {
                            "weight": 0.32458525307690034
                        },
                        {
                            "weight": -0.027419096430493062
                        },
                        {
                            "weight": -0.30782218449647636
                        },
                        {
                            "weight": 0.0072503406122561564
                        },
                        {
                            "weight": 0.1444633312544149
                        },
                        {
                            "weight": -0.05576973463677326
                        },
                        {
                            "weight": 0.2931351154032793
                        },
                        {
                            "weight": -0.1292859426509989
                        },
                        {
                            "weight": -0.24660199873456823
                        },
                        {
                            "weight": -0.26086612370371176
                        },
                        {
                            "weight": 0.30321997345109475
                        },
                        {
                            "weight": 0.3189051517839102
                        },
                        {
                            "weight": 0.34262944534543416
                        },
                        {
                            "weight": -0.4059345353468948
                        },
                        {
                            "weight": 0.4713852854079499
                        },
                        {
                            "weight": 0.2370752541567549
                        },
                        {
                            "weight": 0.4725797167106437
                        },
                        {
                            "weight": -0.17234080670510454
                        },
                        {
                            "weight": 0.17585796442621293
                        },
                        {
                            "weight": -0.15190942527815204
                        },
                        {
                            "weight": -0.07308527720770114
                        },
                        {
                            "weight": 0.2845633549124763
                        },
                        {
                            "weight": 0.009982623578972505
                        },
                        {
                            "weight": 0.35110359316743145
                        },
                        {
                            "weight": -0.3349981053429647
                        },
                        {
                            "weight": 0.08946856829313032
                        },
                        {
                            "weight": 0.3894501053772168
                        },
                        {
                            "weight": -0.02837673268205332
                        },
                        {
                            "weight": 0.38810076636173796
                        },
                        {
                            "weight": 0.09122619241067498
                        },
                        {
                            "weight": -0.39686681404098256
                        },
                        {
                            "weight": 0.21268601897763362
                        },
                        {
                            "weight": -0.43619290401981814
                        },
                        {
                            "weight": -0.21468899853745893
                        },
                        {
                            "weight": -0.28006364087111485
                        },
                        {
                            "weight": 0.19827042723459676
                        },
                        {
                            "weight": 0.2195412668257679
                        },
                        {
                            "weight": -0.4869285254678356
                        },
                        {
                            "weight": -0.43101551587740683
                        },
                        {
                            "weight": 0.46293926809119956
                        },
                        {
                            "weight": -0.2577946491715474
                        },
                        {
                            "weight": 0.3622044580346926
                        },
                        {
                            "weight": 0.2818444198751098
                        },
                        {
                            "weight": -0.4151652042871179
                        },
                        {
                            "weight": 0.44626992268779775
                        },
                        {
                            "weight": 0.253229704822055
                        },
                        {
                            "weight": 0.3119100503306417
                        },
                        {
                            "weight": 0.41884963939844155
                        },
                        {
                            "weight": -0.41911110234405435
                        },
                        {
                            "weight": -0.012231985704150017
                        },
                        {
                            "weight": -0.23305978634071528
                        },
                        {
                            "weight": -0.0021963790907507663
                        },
                        {
                            "weight": -0.2276686312526784
                        },
                        {
                            "weight": 0.26692283723825727
                        },
                        {
                            "weight": -0.15109278638432394
                        },
                        {
                            "weight": -0.0726667365956431
                        },
                        {
                            "weight": -0.14360859492961714
                        },
                        {
                            "weight": -0.26164268146811176
                        },
                        {
                            "weight": 0.3889565307223035
                        },
                        {
                            "weight": -0.2555078290288839
                        },
                        {
                            "weight": 0.3195835109425632
                        },
                        {
                            "weight": 0.48208971668132106
                        },
                        {
                            "weight": 0.4471781904097545
                        },
                        {
                            "weight": 0.37339060692274506
                        },
                        {
                            "weight": -0.2325992823171426
                        },
                        {
                            "weight": -0.33288545092236504
                        },
                        {
                            "weight": 0.07166103415734182
                        },
                        {
                            "weight": 0.47694198450862524
                        },
                        {
                            "weight": -0.3298139763902006
                        },
                        {
                            "weight": 0.1306455182799351
                        },
                        {
                            "weight": 0.4398812525998248
                        },
                        {
                            "weight": -0.09760862510074331
                        },
                        {
                            "weight": -0.00715002414637711
                        },
                        {
                            "weight": 0.2217256720139299
                        },
                        {
                            "weight": -0.02277382938786121
                        },
                        {
                            "weight": -0.06088010145857936
                        },
                        {
                            "weight": -0.025044623625019857
                        },
                        {
                            "weight": -0.21086377951822421
                        },
                        {
                            "weight": -0.14203046252114254
                        },
                        {
                            "weight": 0.045844274491930515
                        },
                        {
                            "weight": 0.2669042347776258
                        },
                        {
                            "weight": 0.11490975113814217
                        },
                        {
                            "weight": -0.45635210505982493
                        },
                        {
                            "weight": -0.4607643969360573
                        },
                        {
                            "weight": -0.1181674120846053
                        },
                        {
                            "weight": -0.11744489144414888
                        },
                        {
                            "weight": -0.04343113353170042
                        },
                        {
                            "weight": 0.22822399344678224
                        },
                        {
                            "weight": 0.1109124270877393
                        },
                        {
                            "weight": -0.15447460327040152
                        }
                    ]
                },
                {
                    "Weights": [
                        {
                            "weight": -0.06950406243070217
                        },
                        {
                            "weight": -0.1723848870500852
                        },
                        {
                            "weight": 0.4098943543666481
                        },
                        {
                            "weight": -0.1961134555079571
                        },
                        {
                            "weight": 0.0850158306327723
                        },
                        {
                            "weight": -0.42299109655571687
                        },
                        {
                            "weight": 0.3655475786493847
                        },
                        {
                            "weight": 0.06195781514139753
                        },
                        {
                            "weight": -0.26280507294591754
                        },
                        {
                            "weight": -0.0038069035316849464
                        },
                        {
                            "weight": 0.0018390672802175434
                        },
                        {
                            "weight": 0.1295863019533392
                        },
                        {
                            "weight": 0.47904307278294256
                        },
                        {
                            "weight": -0.27643526116685724
                        },
                        {
                            "weight": -0.39318752743452207
                        },
                        {
                            "weight": -0.08183702913664143
                        },
                        {
                            "weight": 0.18852011520812295
                        },
                        {
                            "weight": -0.11405130695274623
                        },
                        {
                            "weight": 0.266132508342216
                        },
                        {
                            "weight": -0.2656356107609512
                        },
                        {
                            "weight": -0.34714707217512053
                        },
                        {
                            "weight": -0.11895774098064643
                        },
                        {
                            "weight": -0.23198771582077615
                        },
                        {
                            "weight": -0.31791146911117785
                        },
                        {
                            "weight": 0.25287484693474827
                        },
                        {
                            "weight": 0.1405673927350749
                        },
                        {
                            "weight": 0.12865739781812646
                        },
                        {
                            "weight": -0.018901160079474177
                        },
                        {
                            "weight": -0.24852018063819042
                        },
                        {
                            "weight": 0.46418279454772493
                        },
                        {
                            "weight": -0.05618499566157581
                        },
                        {
                            "weight": 0.17197575739211202
                        },
                        {
                            "weight": -0.20820209250236027
                        },
                        {
                            "weight": -0.14629064175593232
                        },
                        {
                            "weight": 0.465862301884155
                        },
                        {
                            "weight": 0.36681373813041196
                        },
                        {
                            "weight": -0.0792817383116492
                        },
                        {
                            "weight": 0.3314098800725349
                        },
                        {
                            "weight": -0.0712284471891953
                        },
                        {
                            "weight": 0.147913189203438
                        },
                        {
                            "weight": -0.1723970239201547
                        },
                        {
                            "weight": 0.42061062009102224
                        },
                        {
                            "weight": -0.2225005093042275
                        },
                        {
                            "weight": -0.19335395159821678
                        },
                        {
                            "weight": -0.35582464153683957
                        },
                        {
                            "weight": -0.12568803673874956
                        },
                        {
                            "weight": 0.21480901926514184
                        },
                        {
                            "weight": 0.32269547413228794
                        },
                        {
                            "weight": 0.2502606567695088
                        },
                        {
                            "weight": -0.01905847285364687
                        },
                        {
                            "weight": -0.4429401370896679
                        },
                        {
                            "weight": 0.3931135845943883
                        },
                        {
                            "weight": 0.3519837861657067
                        },
                        {
                            "weight": -0.18492785244943943
                        },
                        {
                            "weight": -0.4247978849777942
                        },
                        {
                            "weight": 0.10485863310045496
                        },
                        {
                            "weight": 0.44563954028563557
                        },
                        {
                            "weight": 0.19385951284033232
                        },
                        {
                            "weight": -0.4140425274400239
                        },
                        {
                            "weight": -0.3028806403525549
                        },
                        {
                            "weight": 0.15804230738805713
                        },
                        {
                            "weight": 0.019772476898400337
                        },
                        {
                            "weight": 0.3590951170395571
                        },
                        {
                            "weight": 0.4398402148856969
                        },
                        {
                            "weight": 0.3634818356034727
                        },
                        {
                            "weight": 0.3249574184627073
                        },
                        {
                            "weight": 0.3066539525551041
                        },
                        {
                            "weight": -0.21579990316918113
                        },
                        {
                            "weight": 0.15636729807423766
                        },
                        {
                            "weight": -0.2645744946340911
                        },
                        {
                            "weight": 0.4221132860342569
                        },
                        {
                            "weight": 0.473970274154083
                        },
                        {
                            "weight": -0.34396387500407355
                        },
                        {
                            "weight": -0.3003872232699707
                        },
                        {
                            "weight": -0.21938367744413378
                        },
                        {
                            "weight": -0.20978851607990845
                        },
                        {
                            "weight": 0.06392473999127968
                        },
                        {
                            "weight": 0.48542534182100805
                        },
                        {
                            "weight": -0.3870930424086252
                        },
                        {
                            "weight": -0.18581460370021619
                        },
                        {
                            "weight": -0.03363313103263876
                        },
                        {
                            "weight": -0.34003317949829304
                        },
                        {
                            "weight": -0.2927010195668326
                        },
                        {
                            "weight": -0.18164934532793675
                        },
                        {
                            "weight": -0.034961031947732424
                        },
                        {
                            "weight": -0.2274989040836221
                        },
                        {
                            "weight": 0.4132092877725182
                        },
                        {
                            "weight": -0.08932149166209691
                        },
                        {
                            "weight": 0.45636060875671014
                        },
                        {
                            "weight": 0.4891667607934991
                        },
                        {
                            "weight": 0.09779786798534817
                        },
                        {
                            "weight": 0.1144029156837626
                        },
                        {
                            "weight": 0.008939237230894626
                        },
                        {
                            "weight": -0.04310701543609935
                        },
                        {
                            "weight": 0.05424313010845483
                        },
                        {
                            "weight": -0.12757892762663725
                        },
                        {
                            "weight": -0.21814959743439666
                        },
                        {
                            "weight": -0.13910291733644103
                        },
                        {
                            "weight": 0.14662116966518624
                        },
                        {
                            "weight": 0.428217700639841
                        }
                    ]
                },
                {
                    "Weights": [
                        {
                            "weight": 0.06873445523843846
                        },
                        {
                            "weight": 0.4021879743329194
                        },
                        {
                            "weight": 0.23235871302539424
                        },
                        {
                            "weight": 0.25834723196846776
                        },
                        {
                            "weight": -0.31719570357221905
                        },
                        {
                            "weight": -0.47742980351551895
                        },
                        {
                            "weight": -0.17772802804025262
                        },
                        {
                            "weight": -0.33177036175121105
                        },
                        {
                            "weight": -0.3745228459241441
                        },
                        {
                            "weight": 0.12645736825953113
                        },
                        {
                            "weight": 0.12459650721615023
                        },
                        {
                            "weight": -0.22455602496143245
                        },
                        {
                            "weight": 0.3237563491537033
                        },
                        {
                            "weight": 0.43294716188821336
                        },
                        {
                            "weight": 0.23048294309083506
                        },
                        {
                            "weight": -0.4037425553909235
                        },
                        {
                            "weight": 0.3461564496607318
                        },
                        {
                            "weight": -0.3588385490322665
                        },
                        {
                            "weight": -0.44738194709521806
                        },
                        {
                            "weight": 0.3353232099932262
                        },
                        {
                            "weight": 0.22895931895308164
                        },
                        {
                            "weight": 0.1570209690495492
                        },
                        {
                            "weight": -0.15573755323688382
                        },
                        {
                            "weight": -0.31414769694402245
                        },
                        {
                            "weight": -0.2887359013030007
                        },
                        {
                            "weight": 0.20668351959748366
                        },
                        {
                            "weight": -0.04229729437841906
                        },
                        {
                            "weight": 0.06216118136055826
                        },
                        {
                            "weight": -0.1466953111983348
                        },
                        {
                            "weight": -0.11407959419958275
                        },
                        {
                            "weight": -0.3515162310709786
                        },
                        {
                            "weight": 0.41203914404010367
                        },
                        {
                            "weight": -0.21189161986666344
                        },
                        {
                            "weight": 0.37084248241542017
                        },
                        {
                            "weight": 0.17038637600857132
                        },
                        {
                            "weight": -0.03908732343888249
                        },
                        {
                            "weight": 0.38341267889990127
                        },
                        {
                            "weight": 0.48265834796831864
                        },
                        {
                            "weight": 0.11914231480990645
                        },
                        {
                            "weight": 0.49888983343676196
                        },
                        {
                            "weight": 0.10911571576684509
                        },
                        {
                            "weight": -0.256261178434948
                        },
                        {
                            "weight": -0.22566619198567517
                        },
                        {
                            "weight": -0.06712793554045632
                        },
                        {
                            "weight": -0.32331401654673464
                        },
                        {
                            "weight": 0.4948167511051599
                        },
                        {
                            "weight": 0.01912950906862021
                        },
                        {
                            "weight": -0.4771575673470076
                        },
                        {
                            "weight": -0.36402179792710665
                        },
                        {
                            "weight": 0.06174756243440682
                        },
                        {
                            "weight": 0.3481656426462185
                        },
                        {
                            "weight": 0.354937521025975
                        },
                        {
                            "weight": -0.28123146897704876
                        },
                        {
                            "weight": -0.30757191105167003
                        },
                        {
                            "weight": -0.4592101759180474
                        },
                        {
                            "weight": -0.07996737028004947
                        },
                        {
                            "weight": 0.3891116085458135
                        },
                        {
                            "weight": -0.011507470296466427
                        },
                        {
                            "weight": 0.4721938115415134
                        },
                        {
                            "weight": -0.25758370311352596
                        },
                        {
                            "weight": 0.3644129359649554
                        },
                        {
                            "weight": -0.3793224199904699
                        },
                        {
                            "weight": -0.34554455907342235
                        },
                        {
                            "weight": -0.3474786843627126
                        },
                        {
                            "weight": 0.4815200624249504
                        },
                        {
                            "weight": 0.314841816935149
                        },
                        {
                            "weight": 0.10343399219840477
                        },
                        {
                            "weight": 0.36493274132485165
                        },
                        {
                            "weight": 0.29750016444246297
                        },
                        {
                            "weight": -0.2774236929916887
                        },
                        {
                            "weight": 0.3638225743006088
                        },
                        {
                            "weight": -0.09338412025169657
                        },
                        {
                            "weight": -0.043684871426636795
                        },
                        {
                            "weight": -0.361843618146071
                        },
                        {
                            "weight": 0.3294879446688518
                        },
                        {
                            "weight": 0.12300111202662867
                        },
                        {
                            "weight": -0.3670268675019158
                        },
                        {
                            "weight": -0.15138254672353274
                        },
                        {
                            "weight": 0.135843544679621
                        },
                        {
                            "weight": -0.24104866542902248
                        },
                        {
                            "weight": 0.4003650157108739
                        },
                        {
                            "weight": -0.01599081313516515
                        },
                        {
                            "weight": -0.38611114440304745
                        },
                        {
                            "weight": -0.3808664537271794
                        },
                        {
                            "weight": 0.1664372762741695
                        },
                        {
                            "weight": -0.35532132032109487
                        },
                        {
                            "weight": 0.02916617645377584
                        },
                        {
                            "weight": 0.05554888435897831
                        },
                        {
                            "weight": 0.12317120938243875
                        },
                        {
                            "weight": 0.001359987534284568
                        },
                        {
                            "weight": 0.287965181706457
                        },
                        {
                            "weight": -0.012415855113610541
                        },
                        {
                            "weight": 0.11203756754381466
                        },
                        {
                            "weight": 0.4324206226330346
                        },
                        {
                            "weight": 0.13010546052367689
                        },
                        {
                            "weight": 0.09355762996876504
                        },
                        {
                            "weight": 0.24726243910717893
                        },
                        {
                            "weight": -0.26646054727791835
                        },
                        {
                            "weight": -0.04150962916738804
                        },
                        {
                            "weight": 0.04476260308863711
                        }
                    ]
                },
                {
                    "Weights": [
                        {
                            "weight": -0.17768705532778384
                        },
                        {
                            "weight": 0.4413784828369406
                        },
                        {
                            "weight": 0.39243088830375616
                        },
                        {
                            "weight": -0.04953067347385487
                        },
                        {
                            "weight": 0.2708664270447877
                        },
                        {
                            "weight": 0.015432000330384832
                        },
                        {
                            "weight": 0.0734424590242293
                        },
                        {
                            "weight": -0.3805161196787451
                        },
                        {
                            "weight": -0.34872445545099884
                        },
                        {
                            "weight": 0.3223937940562115
                        },
                        {
                            "weight": -0.48015110442887576
                        },
                        {
                            "weight": 0.12528473187484068
                        },
                        {
                            "weight": 0.4262826496531641
                        },
                        {
                            "weight": -0.3710175576950505
                        },
                        {
                            "weight": -0.2082779923119945
                        },
                        {
                            "weight": -0.4290386711289355
                        },
                        {
                            "weight": 0.14814861875872531
                        },
                        {
                            "weight": 0.3372708920469837
                        },
                        {
                            "weight": 0.18413253825350318
                        },
                        {
                            "weight": -0.3504913941679948
                        },
                        {
                            "weight": 0.12523607329243613
                        },
                        {
                            "weight": -0.32828331686010737
                        },
                        {
                            "weight": 0.25154617337581986
                        },
                        {
                            "weight": 0.05765669546446606
                        },
                        {
                            "weight": 0.2918221436635694
                        },
                        {
                            "weight": -0.15489619711641978
                        },
                        {
                            "weight": -0.19508086588935963
                        },
                        {
                            "weight": -0.47463840407535357
                        },
                        {
                            "weight": 0.2935941737161921
                        },
                        {
                            "weight": 0.3396817371992774
                        },
                        {
                            "weight": -0.03852264434496061
                        },
                        {
                            "weight": -0.3840928820725963
                        },
                        {
                            "weight": 0.281060220036218
                        },
                        {
                            "weight": -0.14609175604120445
                        },
                        {
                            "weight": 0.056376444453548835
                        },
                        {
                            "weight": 0.051926646620001016
                        },
                        {
                            "weight": 0.35934024428918043
                        },
                        {
                            "weight": -0.37018109652222186
                        },
                        {
                            "weight": 0.1614105269412559
                        },
                        {
                            "weight": -0.48938421162282314
                        },
                        {
                            "weight": 0.4422126975339896
                        },
                        {
                            "weight": 0.1712594229733848
                        },
                        {
                            "weight": 0.1259005202520176
                        },
                        {
                            "weight": 0.36849534672614903
                        },
                        {
                            "weight": 0.2902418652783343
                        },
                        {
                            "weight": 0.40762252794002296
                        },
                        {
                            "weight": 0.42945667559721346
                        },
                        {
                            "weight": -0.06160951642394508
                        },
                        {
                            "weight": 0.24489341998700676
                        },
                        {
                            "weight": 0.11358921338971206
                        },
                        {
                            "weight": 0.07789908940806012
                        },
                        {
                            "weight": -0.1298705071815618
                        },
                        {
                            "weight": 0.2753058965296046
                        },
                        {
                            "weight": -0.17055473767712465
                        },
                        {
                            "weight": 0.41778618874390894
                        },
                        {
                            "weight": 0.06712804019317409
                        },
                        {
                            "weight": 0.1645490656674603
                        },
                        {
                            "weight": -0.2772946776064553
                        },
                        {
                            "weight": 0.08248963611782045
                        },
                        {
                            "weight": -0.0418567610773522
                        },
                        {
                            "weight": -0.43761294040717785
                        },
                        {
                            "weight": -0.45603300822714016
                        },
                        {
                            "weight": 0.06405035731105613
                        },
                        {
                            "weight": 0.3334472796290402
                        },
                        {
                            "weight": -0.11212476426834461
                        },
                        {
                            "weight": -0.37957319869639966
                        },
                        {
                            "weight": -0.11462607421196352
                        },
                        {
                            "weight": -0.25278452044016897
                        },
                        {
                            "weight": -0.2597542952186215
                        },
                        {
                            "weight": -0.45321554727070756
                        },
                        {
                            "weight": -0.25216873206299206
                        },
                        {
                            "weight": -0.31754159814563654
                        },
                        {
                            "weight": 0.20804387570267724
                        },
                        {
                            "weight": 0.3637317886500301
                        },
                        {
                            "weight": -0.4490462518804922
                        },
                        {
                            "weight": -0.001714259479993152
                        },
                        {
                            "weight": 0.2713543161290486
                        },
                        {
                            "weight": 0.47041042371672137
                        },
                        {
                            "weight": 0.42667622409606176
                        },
                        {
                            "weight": 0.016247735655050666
                        },
                        {
                            "weight": 0.08399963710643332
                        },
                        {
                            "weight": 0.004575313043117202
                        },
                        {
                            "weight": 0.37637722893449344
                        },
                        {
                            "weight": -0.14069446682496672
                        },
                        {
                            "weight": 0.3240205753659925
                        },
                        {
                            "weight": 0.2941634172173978
                        },
                        {
                            "weight": 0.4164335733682074
                        },
                        {
                            "weight": -0.011430359427551884
                        },
                        {
                            "weight": -0.48313126085006225
                        },
                        {
                            "weight": -0.0010767905139721923
                        },
                        {
                            "weight": 0.43671287995610053
                        },
                        {
                            "weight": -0.4307442012572401
                        },
                        {
                            "weight": 0.03289020125888764
                        },
                        {
                            "weight": 0.000763236806151979
                        },
                        {
                            "weight": 0.3927030783718001
                        },
                        {
                            "weight": 0.410765436990543
                        },
                        {
                            "weight": 0.11119003810975236
                        },
                        {
                            "weight": -0.22192299584016345
                        },
                        {
                            "weight": -0.3420190839106306
                        },
                        {
                            "weight": 0.34143574335213545
                        }
                    ]
                },
                {
                    "Weights": [
                        {
                            "weight": -0.10418781597362264
                        },
                        {
                            "weight": -0.4761058552545057
                        },
                        {
                            "weight": -0.47709466786919846
                        },
                        {
                            "weight": -0.24045602778459718
                        },
                        {
                            "weight": -0.43515210667399323
                        },
                        {
                            "weight": 0.011191072650808431
                        },
                        {
                            "weight": -0.46910171165554865
                        },
                        {
                            "weight": -0.4647416834182766
                        },
                        {
                            "weight": -0.062132703714134485
                        },
                        {
                            "weight": 0.037146023999501954
                        },
                        {
                            "weight": 0.10925795368815683
                        },
                        {
                            "weight": 0.4324426093289827
                        },
                        {
                            "weight": -0.08647674752700923
                        },
                        {
