{
    "Layers": [
        null,
        {
            "Biases": [
                {
                    "weight": -0.05221942976220484
                },
                {
                    "weight": -0.14978434309353322
                },
                {
                    "weight": -0.20587752114789443
                },
                {
                    "weight": -0.024829417883804716
                },
                {
                    "weight": -0.1432929500999362
                },
                {
                    "weight": -0.1529794461713077
                },
                {
                    "weight": 0.263327305961087
                },
                {
                    "weight": 0.36652897277685303
                },
                {
                    "weight": 0.04651927016047719
                },
                {
                    "weight": 0.26336180755093774
                },
                {
                    "weight": -0.03165343082121269
                },
                {
                    "weight": 0.23167159247289948
                },
                {
                    "weight": -0.19336997197166544
                },
                {
                    "weight": 0.32148479656385487
                },
                {
                    "weight": -0.3069271794180046
                },
                {
                    "weight": 0.208807610622052
                },
                {
                    "weight": -0.36316605385074674
                },
                {
                    "weight": -0.4414072034235146
                },
                {
                    "weight": -0.33333481246295144
                },
                {
                    "weight": 0.3637667042220787
                },
                {
                    "weight": 0.06797169165591321
                },
                {
                    "weight": -0.4437731550185816
                },
                {
                    "weight": -0.13410496327751548
                },
                {
                    "weight": 0.44093899924351787
                },
                {
                    "weight": -0.29673496260155685
                },
                {
                    "weight": 0.040602326332871974
                },
                {
                    "weight": 0.2555939451677697
                },
                {
                    "weight": 0.31252718484146846
                },
                {
                    "weight": -0.1607222879867639
                },
                {
                    "weight": -0.3635045926335755
                },
                {
                    "weight": -0.2576265608741094
                },
                {
                    "weight": 0.0007136571364074751
                },
                {
                    "weight": -0.4580474271616188
                },
                {
                    "weight": -0.3730518943364973
                },
                {
                    "weight": 0.1549371569254142
                },
                {
                    "weight": 0.42752701052815045
                },
                {
                    "weight": -0.30027653235955004
                },
                {
                    "weight": 0.42313511395972925
                },
                {
                    "weight": -0.0114225744416111
                },
                {
                    "weight": -0.23650830230513042
                },
                {
                    "weight": 0.42515409315244956
                },
                {
                    "weight": 0.49325191453250683
                },
                {
                    "weight": -0.384862779241457
                },
                {
                    "weight": 0.25624123860441206
                },
                {
                    "weight": -0.46767243581249957
                },
                {
                    "weight": -0.14634787502528535
                },
                {
                    "weight": -0.05978195098218603
                },
                {
                    "weight": -0.2231264877287329
                },
                {
                    "weight": 0.43768051125001184
                },
                {
                    "weight": 0.2746862435502402
                },
                {
                    "weight": 0.04779637850252738
                },
                {
                    "weight": 0.039818845200268016
                },
                {
                    "weight": -0.29698466947161806
                },
                {
                    "weight": -0.2964612120326894
                },
                {
                    "weight": -0.3657663802224055
                },
                {
                    "weight": -0.42677294840420266
                },
                {
                    "weight": -0.3873697927349107
                },
                {
                    "weight": -0.07935812586422919
                },
                {
                    "weight": 0.09746146273215373
                },
                {
                    "weight": 0.158112826351129
                },
                {
                    "weight": 0.4244459701489871
                },
                {
                    "weight": 0.20610332308621304
                },
                {
                    "weight": -0.18892340301485888
                },
                {
                    "weight": -0.05659356474252114
                },
                {
                    "weight": 0.21371280132034454
                },
                {
                    "weight": 0.47093635214070617
                },
                {
                    "weight": 0.27596689379120576
                },
                {
                    "weight": 0.4445860279698791
                },
                {
                    "weight": -0.3410524483868165
                },
                {
                    "weight": -0.14447643622964457
                },
                {
                    "weight": 0.02390847115493777
                },
                {
                    "weight": 0.22722959622146077
                },
                {
                    "weight": -0.14774149077373627
                },
                {
                    "weight": 0.2169554450441875
                },
                {
                    "weight": -0.36850007985648703
                },
                {
                    "weight": 0.06797750031481387
                },
                {
                    "weight": -0.3938812998234673
                },
                {
                    "weight": -0.08738760978327487
                },
                {
                    "weight": -0.39955475481206304
                },
                {
                    "weight": -0.1391666152743467
                },
                {
                    "weight": 0.03775105713761917
                },
                {
                    "weight": -0.02678253610468584
                },
                {
                    "weight": 0.20473265799448492
                },
                {
                    "weight": 0.08433908452947592
                },
                {
                    "weight": -0.4801779616392115
                },
                {
                    "weight": -0.2496612607918965
                },
                {
                    "weight": 0.16838770222775068
                },
                {
                    "weight": -0.2941243968550695
                },
                {
                    "weight": -0.33753315806273987
                },
                {
                    "weight": 0.2323938927531214
                },
                {
                    "weight": 0.22678928005359567
                },
                {
                    "weight": -0.23117790486718431
                },
                {
                    "weight": -0.4740809046682347
                },
                {
                    "weight": -0.24534220111805116
                },
                {
                    "weight": -0.48571362601859197
                },
                {
                    "weight": -0.36230717770862725
                },
                {
                    "weight": 0.4088386117102758
                },
                {
                    "weight": 0.1269685131856093
                },
                {
                    "weight": 0.17122511177846467
                },
                {
                    "weight": 0.39126623006596517
                }
            ],
            "Perceptrons": [
                {
                    "Weights": [
                        {
                            "weight": 0.4152427319089149
                        },
                        {
                            "weight": 0.07115461960023017
                        },
                        {
                            "weight": -0.4144724793007935
                        },
                        {
                            "weight": -0.19572477601269483
                        },
                        {
                            "weight": 0.32910845576278325
                        },
                        {
                            "weight": -0.2922286156295932
                        },
                        {
                            "weight": -0.006955495847834059
                        },
                        {
                            "weight": 0.04984127768307989
                        },
                        {
                            "weight": 0.3594454967274543
                        },
                        {
                            "weight": 0.040967306499819944
                        },
                        {
                            "weight": 0.4450513209100121
                        },
                        {
                            "weight": -0.4109327332772933
                        },
                        {
                            "weight": 0.22042580571511095
                        },
                        {
                            "weight": 0.21855952233474674
                        },
                        {
                            "weight": 0.4950346965971565
                        },
                        {
                            "weight": -0.32818669581235693
                        },
                        {
                            "weight": 0.44948742137266673
                        },
                        {
                            "weight": 0.31086158094502125
                        },
                        {
                            "weight": 0.46099467983981346
                        },
                        {
                            "weight": 0.25908312912056375
                        },
                        {
                            "weight": -0.2737917289760856
                        },
                        {
                            "weight": 0.2832513697227702
                        },
                        {
                            "weight": -0.13365191784857394
                        },
                        {
                            "weight": -0.3156357711672949
                        },
                        {
                            "weight": 0.41489308614045994
                        },
                        {
                            "weight": 0.04086601316969185
                        },
                        {
                            "weight": -0.2668108273888057
                        },
                        {
                            "weight": 0.441914399849211
                        },
                        {
                            "weight": 0.33385601052262637
                        },
                        {
                            "weight": 0.4287714728241653
                        },
                        {
                            "weight": 0.32678609354271837
                        },
                        {
                            "weight": -0.460348438411182
                        },
                        {
                            "weight": -0.07863138426497174
                        },
                        {
                            "weight": 0.4023136147029296
                        },
                        {
                            "weight": -0.16607321442387685
                        },
                        {
                            "weight": -0.24952292896319317
                        },
                        {
                            "weight": -0.3899150013876683
                        },
                        {
                            "weight": 0.31697128972828914
                        },
                        {
                            "weight": 0.2903183487198867
                        },
                        {
                            "weight": 0.45953049580079064
                        },
                        {
                            "weight": -0.14206140423289565
                        },
                        {
                            "weight": 0.235369669168894
                        },
                        {
                            "weight": -0.45140223793750733
                        },
                        {
                            "weight": -0.42163559851778465
                        },
                        {
                            "weight": -0.04607080849635914
                        },
                        {
                            "weight": -0.4563675418013556
                        },
                        {
                            "weight": -0.2598222943301416
                        },
                        {
                            "weight": -0.0965833875846972
                        },
                        {
                            "weight": 0.3444940396046703
                        },
                        {
                            "weight": -0.2988276149513328
                        },
                        {
                            "weight": -0.33750025846413345
                        },
                        {
                            "weight": -0.42929768983241995
                        },
                        {
                            "weight": 0.4744237547714374
                        },
                        {
                            "weight": 0.018847823687292542
                        },
                        {
                            "weight": -0.2549334609997149
                        },
                        {
                            "weight": 0.38931684045089265
                        },
                        {
                            "weight": -0.44028616360402023
                        },
                        {
                            "weight": -0.031744287927515935
                        },
                        {
                            "weight": 0.33123123983909897
                        },
                        {
                            "weight": 0.3835698469186062
                        },
                        {
                            "weight": -0.10297281556435528
                        },
                        {
                            "weight": 0.15801733292081266
                        },
                        {
                            "weight": 0.41322140850742417
                        },
                        {
                            "weight": 0.3083958001706729
                        },
                        {
                            "weight": 0.06033094716273757
                        },
                        {
                            "weight": -0.25285180637745736
                        },
                        {
                            "weight": -0.4411271292535249
                        },
                        {
                            "weight": 0.16041594623607391
                        },
                        {
                            "weight": -0.4358805166491682
                        },
                        {
                            "weight": 0.33919121946636177
                        },
                        {
                            "weight": 0.11994644157585987
                        },
                        {
                            "weight": -0.08794192088206387
                        },
                        {
                            "weight": 0.07456088817425122
                        },
                        {
                            "weight": 0.15854420363835253
                        },
                        {
                            "weight": -0.01957751939984853
                        },
                        {
                            "weight": -0.4715099207831127
                        },
                        {
                            "weight": 0.192176661836997
                        },
                        {
                            "weight": 0.21060018627000976
                        },
                        {
                            "weight": -0.07809330790680519
                        },
                        {
                            "weight": 0.03667070098066261
                        },
                        {
                            "weight": 0.40177257131867694
                        },
                        {
                            "weight": 0.0744064336290613
                        },
                        {
                            "weight": 0.0973730111482427
                        },
                        {
                            "weight": 0.37619632562910976
                        },
                        {
                            "weight": -0.40674574314465084
                        },
                        {
                            "weight": 0.33243955060953256
                        },
                        {
                            "weight": 0.2655131656189975
                        },
                        {
                            "weight": -0.357031906748671
                        },
                        {
                            "weight": -0.1993047377789881
                        },
                        {
                            "weight": 0.09674440499709192
                        },
                        {
                            "weight": -0.4734620598300649
                        },
                        {
                            "weight": 0.18772244665665672
                        },
                        {
                            "weight": -0.24523826208209537
                        },
                        {
                            "weight": 0.4297593486773592
                        },
                        {
                            "weight": -0.0038817536336750447
                        },
                        {
                            "weight": 0.30509268508064225
                        },
                        {
                            "weight": -0.32309245770009815
                        },
                        {
                            "weight": 0.044991117112800016
                        },
                        {
                            "weight": -0.03449136914428852
                        },
                        {
                            "weight": -0.26897297434926637
                        }
                    ]
                },
                {
                    "Weights": [
                        {
                            "weight": 0.06695639432266187
                        },
                        {
                            "weight": -0.3547837017405702
                        },
                        {
                            "weight": 0.4487432242924083
                        },
                        {
                            "weight": 0.2339992756089193
                        },
                        {
                            "weight": -0.3864924146311788
                        },
                        {
                            "weight": 0.4672333039703003
                        },
                        {
                            "weight": -0.0738240625540838
                        },
                        {
                            "weight": 0.3141077716388311
                        },
                        {
                            "weight": -0.11086000439750959
                        },
                        {
                            "weight": 0.4528466384265789
                        },
                        {
                            "weight": 0.21588034295750802
                        },
                        {
                            "weight": 0.45354642923155175
                        },
                        {
                            "weight": 0.05021964957482172
                        },
                        {
                            "weight": 0.09207666812561299
                        },
                        {
                            "weight": -0.4531993143741038
                        },
                        {
                            "weight": -0.11734080027665045
                        },
                        {
                            "weight": -0.14241016625538944
                        },
                        {
                            "weight": -0.32023122112277486
                        },
                        {
                            "weight": 0.17335446194436144
                        },
                        {
                            "weight": 0.4443342387417024
                        },
                        {
                            "weight": -0.30369328095283976
                        },
                        {
                            "weight": -0.13892309185998652
                        },
                        {
                            "weight": -0.3009040238013975
                        },
                        {
                            "weight": -0.37393393227548055
                        },
                        {
                            "weight": 0.3471951545063383
                        },
                        {
                            "weight": 0.49418866174024934
                        },
                        {
                            "weight": -0.2070263899755787
                        },
                        {
                            "weight": -0.10781372884186624
                        },
                        {
                            "weight": -0.04030270786504386
                        },
                        {
                            "weight": 0.014000635675154971
                        },
                        {
                            "weight": 0.26636860727629097
                        },
                        {
                            "weight": 0.03515236456652748
                        },
                        {
                            "weight": -0.35291426001717996
                        },
                        {
                            "weight": 0.2151118311076946
                        },
                        {
                            "weight": -0.230848360285558
                        },
                        {
                            "weight": -0.2494066746483588
                        },
                        {
                            "weight": 0.1823451346169902
                        },
                        {
                            "weight": 0.1853275771603583
                        },
                        {
                            "weight": -0.4352989030095278
                        },
                        {
                            "weight": -0.4285148702415241
                        },
                        {
                            "weight": 0.1381742155869371
                        },
                        {
                            "weight": 0.27058143994798023
                        },
                        {
                            "weight": -0.4749684414709771
                        },
                        {
                            "weight": -0.31160613529924586
                        },
                        {
                            "weight": -0.13734189238741146
                        },
                        {
                            "weight": -0.43816775584508094
                        },
                        {
                            "weight": 0.06105306442410363
                        },
                        {
                            "weight": 0.21024794135719904
                        },
                        {
                            "weight": -0.26839897650685113
                        },
                        {
                            "weight": -0.2655924740925396
                        },
                        {
                            "weight": 0.15458218009890157
                        },
                        {
                            "weight": -0.0820922574596909
                        },
                        {
                            "weight": 0.08548443404747375
                        },
                        {
                            "weight": 0.3436781562975041
                        },
                        {
                            "weight": 0.033973810264828486
                        },
                        {
                            "weight": -0.06732041190719251
                        },
                        {
                            "weight": 0.33786681757674875
                        },
                        {
                            "weight": 0.3169474202892497
                        },
                        {
                            "weight": 0.31486585925094124
                        },
                        {
                            "weight": -0.20243589028829517
                        },
                        {
                            "weight": -0.16905194449659994
                        },
                        {
                            "weight": 0.08123446606622753
                        },
                        {
                            "weight": 0.32271647427823225
                        },
                        {
                            "weight": -0.03196620405277523
                        },
                        {
                            "weight": -0.2036537032870826
                        },
                        {
                            "weight": -0.4081318864683303
                        },
                        {
                            "weight": 0.20862712129886596
                        },
                        {
                            "weight": 0.4686914317909122
                        },
                        {
                            "weight": 0.26719569115303254
                        },
                        {
                            "weight": 0.26332821828933817
                        },
                        {
                            "weight": -0.45982343891161653
                        },
                        {
                            "weight": -0.09463009372103498
                        },
                        {
                            "weight": 0.03390965777631372
                        },
                        {
                            "weight": -0.444791879921589
                        },
                        {
                            "weight": 0.0837637709797191
                        },
                        {
                            "weight": 0.3865677658499068
                        },
                        {
                            "weight": -0.3929596357666699
                        },
                        {
                            "weight": -0.35518316505718195
                        },
                        {
                            "weight": 0.0968157067461013
                        },
                        {
                            "weight": -0.17135861227352106
                        },
                        {
                            "weight": -0.1307756391497215
                        },
                        {
                            "weight": -0.24860211361600187
                        },
                        {
                            "weight": 0.2365491307277926
                        },
                        {
                            "weight": 0.44470879489775217
                        },
                        {
                            "weight": -0.40492395731849784
                        },
                        {
                            "weight": -0.22947705946838343
                        },
                        {
                            "weight": -0.12261161747044491
                        },
                        {
                            "weight": 0.4229428602582509
                        },
                        {
                            "weight": -0.41252963917913366
                        },
                        {
                            "weight": -0.30774575868050835
                        },
                        {
                            "weight": -0.2794930304910489
                        },
                        {
                            "weight": -0.0915815836757336
                        },
                        {
                            "weight": 0.26348870738571917
                        },
                        {
                            "weight": -0.45677655667382133
                        },
                        {
                            "weight": 0.36645221227149116
                        },
                        {
                            "weight": -0.4401649963623681
                        },
                        {
                            "weight": -0.374908442681147
                        },
                        {
                            "weight": 0.07507933357035712
                        },
                        {
                            "weight": -0.4714735650324605
                        },
                        {
                            "weight": 0.38228724847188555
                        }
                    ]
                },
                {
                    "Weights": [
                        {
                            "weight": -0.4412970034830724
                        },
                        {
                            "weight": -0.21234284571015405
                        },
                        {
                            "weight": 0.3623172096360089
                        },
                        {
                            "weight": -0.3960888834046614
                        },
                        {
                            "weight": 0.36142092526956504
                        },
                        {
                            "weight": 0.24888497502491103
                        },
                        {
                            "weight": -0.29904851917133135
                        },
                        {
                            "weight": 0.4962377602123832
                        },
                        {
                            "weight": -0.15429931868999236
                        },
                        {
                            "weight": 0.019592869016152314
                        },
                        {
                            "weight": -0.1345378793983431
                        },
                        {
                            "weight": 0.08709856815501049
                        },
                        {
                            "weight": -0.2438580007170597
                        },
                        {
                            "weight": -0.1898290849615955
                        },
                        {
                            "weight": 0.17217461083651275
                        },
                        {
                            "weight": 0.016664939814556856
                        },
                        {
                            "weight": 0.17755929756795952
                        },
                        {
                            "weight": 0.09511747063375886
                        },
                        {
                            "weight": 0.09413530063542319
                        },
                        {
                            "weight": 0.35981353888745116
                        },
                        {
                            "weight": 0.30562444060371463
                        },
                        {
                            "weight": 0.4925537174206943
                        },
                        {
                            "weight": 0.12330224581216576
                        },
                        {
                            "weight": 0.3388478839298934
                        },
                        {
                            "weight": 0.3590059292311808
                        },
                        {
                            "weight": 0.17313724944979758
                        },
                        {
                            "weight": 0.4539394412487464
                        },
                        {
                            "weight": -0.06591473765946682
                        },
                        {
                            "weight": 0.19166368487834173
                        },
                        {
                            "weight": 0.3362266892596272
                        },
                        {
                            "weight": 0.2624928142002284
                        },
                        {
                            "weight": 0.2403666813952693
                        },
                        {
                            "weight": -0.37611615691153155
                        },
                        {
                            "weight": 0.12481002337523273
                        },
                        {
                            "weight": 0.33427779799060797
                        },
                        {
                            "weight": 0.4753047683580335
                        },
                        {
                            "weight": -0.12630500206086087
                        },
                        {
                            "weight": -0.46477072164172806
                        },
                        {
                            "weight": 0.471542528109412
                        },
                        {
                            "weight": 0.20939567924914682
                        },
                        {
                            "weight": 0.04482214737442414
                        },
                        {
                            "weight": -0.1629953517499358
                        },
                        {
                            "weight": -0.20350575305684737
                        },
                        {
                            "weight": 0.2909641466573645
                        },
                        {
                            "weight": 0.13717556328846858
                        },
                        {
                            "weight": 0.4586688577796654
                        },
                        {
                            "weight": -0.19237091352807867
                        },
                        {
                            "weight": -0.1852651396045764
                        },
                        {
                            "weight": 0.053786328413424234
                        },
                        {
                            "weight": 0.3917643871073445
                        },
                        {
                            "weight": -0.32545160117812993
                        },
                        {
                            "weight": -0.14058923144386576
                        },
                        {
                            "weight": 0.38431810406703415
                        },
                        {
                            "weight": 0.28785064463403576
                        },
                        {
                            "weight": -0.30174134797497715
                        },
                        {
                            "weight": 0.24332403329821484
                        },
                        {
                            "weight": -0.03901210591616672
                        },
                        {
                            "weight": -0.3478019067262308
                        },
                        {
                            "weight": -0.32259070482225655
                        },
                        {
                            "weight": -0.3473484214988297
                        },
                        {
                            "weight": 0.4784247825333964
                        },
                        {
                            "weight": 0.4299021093779719
                        },
                        {
                            "weight": 0.3830182598964397
                        },
                        {
                            "weight": -0.3976913743781352
                        },
                        {
                            "weight": 0.054712132292199955
                        },
                        {
                            "weight": 0.21729605742604285
                        },
                        {
                            "weight": -0.4223866064811063
                        },
                        {
                            "weight": 0.41840713023133913
                        },
                        {
                            "weight": 0.2425253357843149
                        },
                        {
                            "weight": -0.4508440783716943
                        },
                        {
                            "weight": 0.12780280948048584
                        },
                        {
                            "weight": -0.21265251684126096
                        },
                        {
                            "weight": -0.12383943012163012
                        },
                        {
                            "weight": 0.41429705642363857
                        },
                        {
                            "weight": -0.4216883706449011
                        },
                        {
                            "weight": -0.4866638668331615
                        },
                        {
                            "weight": 0.37296591420330383
                        },
                        {
                            "weight": -0.12405928417297973
                        },
                        {
                            "weight": -0.18192900643773796
                        },
                        {
                            "weight": -0.07324775784427662
                        },
                        {
                            "weight": -0.23229489706563528
                        },
                        {
                            "weight": -0.01738060715486328
                        },
                        {
                            "weight": 0.27616301071185756
                        },
                        {
                            "weight": -0.3479767934596058
                        },
                        {
                            "weight": -0.22952996298183215
                        },
                        {
                            "weight": 0.46442166273688046
                        },
                        {
                            "weight": 0.3853472398386091
                        },
                        {
                            "weight": 0.22145793110200107
                        },
                        {
                            "weight": -0.38338024445035507
                        },
                        {
                            "weight": -0.4372434649836474
                        },
                        {
                            "weight": 0.36410950960317146
                        },
                        {
                            "weight": -0.40495546191695864
                        },
                        {
                            "weight": 0.4826586443943244
                        },
                        {
                            "weight": 0.24712776903860634
                        },
                        {
                            "weight": -0.3126468362950938
                        },
                        {
                            "weight": 0.03737077668652433
                        },
                        {
                            "weight": -0.03557617399635549
                        },
                        {
                            "weight": -0.2450334427762001
                        },
                        {
                            "weight": -0.04422209354314122
                        },
                        {
                            "weight": -0.29305083821204064
                        }
                    ]
                },
                {
                    "Weights": [
                        {
                            "weight": -0.41641928452366
                        },
                        {
                            "weight": -0.015703355053301615
                        },
                        {
                            "weight": 0.16028304919148006
                        },
                        {
                            "weight": 0.4878777723609832
                        },
                        {
                            "weight": 0.052608274301797375
                        },
                        {
                            "weight": 0.16361918235831852
                        },
                        {
                            "weight": 0.36084368610328243
                        },
                        {
                            "weight": 0.4185489905898222
                        },
                        {
                            "weight": 0.4716901759205806
                        },
                        {
                            "weight": -0.21240407220199892
                        },
                        {
                            "weight": -0.31374590693681775
                        },
                        {
                            "weight": -0.045690431695287304
                        },
                        {
                            "weight": -0.43624106195114604
                        },
                        {
                            "weight": -0.17172270039642357
                        },
                        {
                            "weight": 0.2147796057838851
                        },
                        {
                            "weight": -0.47181939967527026
                        },
                        {
                            "weight": -0.28637546055781443
                        },
                        {
                            "weight": -0.06376246357511844
                        },
                        {
                            "weight": -0.36519964366462065
                        },
                        {
                            "weight": -0.2336189255414619
                        },
                        {
                            "weight": -0.19965295397194704
                        },
                        {
                            "weight": -0.2801551055815793
                        },
                        {
                            "weight": -0.2509602816081421
                        },
                        {
                            "weight": -0.4525251853943454
                        },
                        {
                            "weight": -0.10280194187667313
                        },
                        {
                            "weight": 0.27641049507838233
                        },
                        {
                            "weight": 0.001898641070303797
                        },
                        {
                            "weight": 0.14216461534712677
                        },
                        {
                            "weight": -0.2678115984647589
                        },
                        {
                            "weight": 0.1988478028582631
                        },
                        {
                            "weight": 0.42628709466023706
                        },
                        {
                            "weight": -0.19423088298841884
                        },
                        {
                            "weight": -0.3168555526560431
                        },
                        {
                            "weight": 0.08657014339071245
                        },
                        {
                            "weight": -0.20635311108844034
                        },
                        {
                            "weight": 0.22575272164575422
                        },
                        {
                            "weight": -0.2498106747119737
                        },
                        {
                            "weight": -0.34550942544616264
                        },
                        {
                            "weight": 0.14430171177457163
                        },
                        {
                            "weight": -0.2781204992523978
                        },
                        {
                            "weight": -0.06791349764816162
                        },
                        {
                            "weight": 0.3205558048377539
                        },
                        {
                            "weight": 0.16618906951331958
                        },
                        {
                            "weight": -0.014154559599307615
                        },
                        {
                            "weight": -0.35116689555866965
                        },
                        {
                            "weight": -0.11903132516379994
                        },
                        {
                            "weight": 0.004026041186426799
                        },
                        {
                            "weight": -0.14754235611648403
                        },
                        {
                            "weight": 0.3072062112610816
                        },
                        {
                            "weight": 0.12882639752180614
                        },
                        {
                            "weight": 0.10883871834205394
                        },
                        {
                            "weight": -0.3924467431718701
                        },
                        {
                            "weight": 0.3386712919402268
                        },
                        {
                            "weight": 0.34787843673391194
                        },
                        {
                            "weight": -0.35497192810521083
                        },
                        {
                            "weight": -0.264130650397451
                        },
                        {
                            "weight": 0.12428893181229428
                        },
                        {
                            "weight": 0.13692671296509296
                        },
                        {
                            "weight": 0.3680339649496758
                        },
                        {
                            "weight": 0.3464773333475354
                        },
                        {
                            "weight": -0.16422548463764852
                        },
                        {
                            "weight": 0.29432105914890816
                        },
                        {
                            "weight": -0.34775355010188813
                        },
                        {
                            "weight": 0.00891896270630832
                        },
                        {
                            "weight": -0.11910879792138412
                        },
                        {
                            "weight": -0.0641066607293238
                        },
                        {
                            "weight": -0.26532831610894214
                        },
                        {
                            "weight": 0.12108052736664221
                        },
                        {
                            "weight": 0.08038391382451349
                        },
                        {
                            "weight": 0.36897339612663416
                        },
                        {
                            "weight": 0.3329600285752491
                        },
                        {
                            "weight": -0.4875295838236481
                        },
                        {
                            "weight": 0.1895292005033833
                        },
                        {
                            "weight": -0.0008509023724361242
                        },
                        {
                            "weight": -0.011684143422955706
                        },
                        {
                            "weight": 0.32836230494471375
                        },
                        {
                            "weight": 0.370117772463764
                        },
                        {
                            "weight": 0.48234189776347103
                        },
                        {
                            "weight": -0.319180051632775
                        },
                        {
                            "weight": 0.1773239832638409
                        },
                        {
                            "weight": 0.11116829482427248
                        },
                        {
                            "weight": 0.27965866670927897
                        },
                        {
                            "weight": 0.27487724055297547
                        },
                        {
                            "weight": -0.05016041369650531
                        },
                        {
                            "weight": 0.1275371034431909
                        },
                        {
                            "weight": 0.4099053124477645
                        },
                        {
                            "weight": 0.17570893590604375
                        },
                        {
                            "weight": -0.24817396520551943
                        },
                        {
                            "weight": 0.0468320249518529
                        },
                        {
                            "weight": 0.043742900855719524
                        },
                        {
                            "weight": -0.4016966323189888
                        },
                        {
                            "weight": 0.37260654031420437
                        },
                        {
                            "weight": -0.161936040456377
                        },
                        {
                            "weight": -0.2594501824208769
                        },
                        {
                            "weight": -0.11847449744049204
                        },
                        {
                            "weight": 0.2089551620832436
                        },
                        {
                            "weight": 0.16644315684979927
                        },
                        {
                            "weight": 0.10619718645056575
                        },
                        {
                            "weight": -0.16996431101111892
                        },
                        {
                            "weight": -0.2531729293256872
                        }
                    ]
                },
                {
                    "Weights": [
                        {
                            "weight": -0.33700428289687456
                        },
                        {
                            "weight": -0.2507025131493353
                        },
                        {
                            "weight": -0.3353002173804214
                        },
                        {
                            "weight": 0.1521448147306893
                        },
                        {
                            "weight": 0.227613343427709
                        },
                        {
                            "weight": 0.4830620875642925
                        },
                        {
                            "weight": 0.02226258673344861
                        },
                        {
                            "weight": 0.20995524119118014
                        },
                        {
                            "weight": -0.3361179640684826
                        },
                        {
                            "weight": -0.30041343000271054
                        },
                        {
                            "weight": -0.17887646444555205
                        },
                        {
                            "weight": 0.43354070264079647
                        },
                        {
                            "weight": 0.464463810550265
                        },
                        {
                            "weight": 0.26096312231894725
                        },
                        {
                            "weight": 0.061077805622982706
                        },
                        {
                            "weight": 0.3743691225370248
                        },
                        {
                            "weight": -0.06332794223601368
                        },
                        {
                            "weight": 0.3029038404174632
                        },
                        {
                            "weight": -0.07879885297212696
                        },
                        {
                            "weight": 0.47041495861970584
                        },
                        {
                            "weight": 0.39120720809847453
                        },
                        {
                            "weight": -0.20619231311892733
                        },
                        {
                            "weight": -0.1915210818366711
                        },
                        {
                            "weight": -0.3682429743224024
                        },
                        {
                            "weight": 0.16533318944058062
                        },
                        {
                            "weight": -0.48256592021443223
                        },
                        {
                            "weight": 0.2882001825273969
                        },
                        {
                            "weight": -0.22846962456985825
                        },
                        {
                            "weight": -0.1625302312255512
                        },
                        {
                            "weight": -0.46497274725929494
                        },
                        {
                            "weight": 0.2367009580073417
                        },
                        {
                            "weight": -0.009534513661421162
                        },
                        {
                            "weight": -0.22567526040863023
                        },
                        {
                            "weight": 0.39140074062692043
                        },
                        {
                            "weight": -0.3573896993917365
                        },
                        {
                            "weight": 0.4919380834800834
                        },
                        {
                            "weight": 0.374462827730208
                        },
                        {
                            "weight": 0.1548728878027168
                        },
                        {
                            "weight": 0.20189332421025885
                        },
                        {
                            "weight": -0.4616551367992792
                        },
                        {
                            "weight": 0.3444594578000062
                        },
                        {
                            "weight": -0.47698314069629794
                        },
                        {
                            "weight": 0.46188556630252187
                        },
                        {
                            "weight": 0.3089232678892665
                        },
                        {
                            "weight": 0.27397998162264936
                        },
                        {
                            "weight": 0.022963371464499893
                        },
                        {
                            "weight": 0.18329238996528663
                        },
                        {
                            "weight": -0.2893479606133643
                        },
                        {
                            "weight": -0.17413278811803679
                        },
                        {
                            "weight": -0.395506463467845
                        },
                        {
                            "weight": -0.31893300245466316
                        },
                        {
                            "weight": -0.28292558048056693
                        },
                        {
                            "weight": -0.1116987765867723
                        },
                        {
                            "weight": -0.020454084291334274
                        },
                        {
                            "weight": -0.16116855480296938
                        },
                        {
                            "weight": -0.44636558760719636
                        },
                        {
                            "weight": -0.01302000450576657
                        },
                        {
                            "weight": -0.37296837227557245
                        },
                        {
                            "weight": -0.18483521217705462
                        },
                        {
                            "weight": 0.3144497647296869
                        },
                        {
                            "weight": -0.3479411195348674
                        },
                        {
                            "weight": -0.44813425463071754
                        },
                        {
                            "weight": -0.1950847493927389
                        },
                        {
                            "weight": -0.08361637948249301
                        },
                        {
                            "weight": 0.43326648599620277
                        },
                        {
                            "weight": -0.06247444878447539
                        },
                        {
                            "weight": -0.09167829646341424
                        },
                        {
                            "weight": 0.3077293137264109
                        },
                        {
                            "weight": -0.4076015614427634
                        },
                        {
                            "weight": -0.38978497271416007
                        },
                        {
                            "weight": 0.3360741769271317
                        },
                        {
                            "weight": 0.4268578963572429
                        },
                        {
                            "weight": -0.376768113410458
                        },
                        {
                            "weight": 0.2979597427686489
                        },
                        {
                            "weight": 0.23578116378550473
                        },
                        {
                            "weight": 0.387211868673196
                        },
                        {
                            "weight": -0.17907688576685116
                        },
                        {
                            "weight": -0.08092644671021326
                        },
                        {
                            "weight": -0.402136092401173
                        },
                        {
                            "weight": 0.136790326115112
                        },
                        {
                            "weight": 0.013567089821941769
                        },
                        {
                            "weight": -0.23106909485583615
                        },
                        {
                            "weight": 0.34386474563454494
                        },
                        {
                            "weight": 0.39186831323516946
                        },
                        {
                            "weight": 0.2384768213138342
                        },
                        {
                            "weight": -0.3173038091684244
                        },
                        {
                            "weight": 0.4355027256279731
                        },
                        {
                            "weight": -0.27454318365293706
                        },
                        {
                            "weight": -0.20027218144399678
                        },
                        {
                            "weight": -0.24933248654908152
                        },
                        {
                            "weight": -0.4600934193842548
                        },
                        {
                            "weight": -0.058213300978864235
                        },
                        {
                            "weight": -0.20746674117979907
                        },
                        {
                            "weight": -0.1651781687769937
                        },
                        {
                            "weight": 0.34817031953864286
                        },
                        {
                            "weight": -0.27420025518359625
                        },
                        {
                            "weight": 0.2623473828995355
                        },
                        {
                            "weight": -0.24350797738577612
                        },
                        {
                            "weight": -0.46647094191819005
                        },
                        {
                            "weight": 0.34474582145677213
                        }
                    ]
                },
                {
                    "Weights": [
                        {
                            "weight": 0.35960323500894165
                        },
                        {
                            "weight": 0.27160371781401504
                        },
                        {
                            "weight": -0.030061063049389547
                        },
                        {
                            "weight": 0.15756297777759054
                        },
                        {
                            "weight": 0.007384881138515098
                        },
                        {
                            "weight": -0.1428491948371982
                        },
                        {
                            "weight": 0.4684860920107393
                        },
                        {
                            "weight": 0.41645843488930656
                        },
                        {
                            "weight": -0.054985287238371205
                        },
                        {
                            "weight": 0.10527641766484663
                        },
                        {
                            "weight": -0.0699744757497564
                        },
                        {
                            "weight": 0.20394561790579258
                        },
                        {
                            "weight": -0.0508588371616131
                        },
                        {
                            "weight": -0.178106162514587
                        },
                        {
                            "weight": -0.05757756124137786
                        },
                        {
                            "weight": 0.12183735366996251
                        },
                        {
                            "weight": -0.24260343734761863
                        },
                        {
                            "weight": 0.1578792555666898
                        },
                        {
                            "weight": 0.4115651722259658
                        },
                        {
                            "weight": -0.0019359238967000536
                        },
                        {
                            "weight": 0.18778583618243494
                        },
                        {
                            "weight": -0.14664812875289845
                        },
                        {
                            "weight": 0.2805973353845055
                        },
                        {
                            "weight": -0.47739233259455877
                        },
                        {
                            "weight": -0.2984778096752604
                        },
                        {
                            "weight": 0.4963970802009092
                        },
                        {
                            "weight": 0.2749550503049768
                        },
                        {
                            "weight": -0.05198578660003178
                        },
                        {
                            "weight": -0.47007386217828556
                        },
                        {
                            "weight": 0.11970087130074436
                        },
                        {
                            "weight": 0.294721263300032
                        },
                        {
                            "weight": 0.37952937283065613
                        },
                        {
                            "weight": -0.10869541134624527
                        },
                        {
                            "weight": -0.23533980021036222
                        },
                        {
                            "weight": 0.03709235014724188
                        },
                        {
                            "weight": 0.3886894702532745
                        },
                        {
                            "weight": 0.11181100495243956
                        },
                        {
                            "weight": 0.005578441696976522
                        },
                        {
                            "weight": 0.3051479046815764
                        },
                        {
                            "weight": -0.4431742827469363
                        },
                        {
                            "weight": -0.3891451410991815
                        },
                        {
                            "weight": -0.2648265715291847
                        },
                        {
                            "weight": 0.250771335619861
                        },
                        {
                            "weight": 0.049996022200210044
                        },
                        {
                            "weight": 0.04706726595622823
                        },
                        {
                            "weight": -0.3068062260825216
                        },
                        {
                            "weight": -0.3281666245908321
                        },
                        {
                            "weight": 0.2944638290696143
                        },
                        {
                            "weight": 0.3410730294841682
                        },
                        {
                            "weight": -0.41660145236486634
                        },
                        {
                            "weight": -0.20747209528809046
                        },
                        {
                            "weight": 0.028858865666603117
                        },
                        {
                            "weight": -0.0732495811177648
                        },
                        {
                            "weight": -0.42687476036458966
                        },
                        {
                            "weight": 0.0414665330720444
                        },
                        {
                            "weight": 0.1182726092069748
                        },
                        {
                            "weight": -0.4304776806246851
                        },
                        {
                            "weight": -0.18357841708398348
                        },
                        {
                            "weight": -0.43371317785406166
                        },
                        {
                            "weight": -0.4105515428029706
                        },
                        {
                            "weight": 0.42612245421676076
                        },
                        {
                            "weight": 0.35100808590697496
                        },
                        {
                            "weight": 0.4589778304886901
                        },
                        {
                            "weight": -0.18257295712948451
                        },
                        {
                            "weight": -0.3843317147643919
                        },
                        {
                            "weight": -0.003929819825072678
                        },
                        {
                            "weight": -0.29388348733721464
                        },
                        {
                            "weight": 0.21747929064905236
                        },
                        {
                            "weight": 0.4916486223329085
                        },
                        {
                            "weight": -0.48873558311664295
                        },
                        {
                            "weight": 0.2643050079021161
                        },
                        {
                            "weight": -0.39749651922727774
                        },
                        {
                            "weight": -0.26356215464582766
                        },
                        {
                            "weight": 0.015076343060972275
                        },
                        {
                            "weight": 0.14249950297293235
                        },
                        {
                            "weight": 0.27350511177140524
                        },
                        {
                            "weight": 0.19827011743945544
                        },
                        {
                            "weight": 0.3043328788431049
                        },
                        {
                            "weight": 0.067968940380015
                        },
                        {
                            "weight": 0.03934314646261894
                        },
                        {
                            "weight": 0.37773142647823843
                        },
                        {
                            "weight": 0.35049684509192447
                        },
                        {
                            "weight": -0.4317979883317826
                        },
                        {
                            "weight": -0.195518155100531
                        },
                        {
                            "weight": 0.41362208518833943
                        },
                        {
                            "weight": 0.09966854474026177
                        },
                        {
                            "weight": 0.41275445410644374
                        },
                        {
                            "weight": 0.4731444045636545
                        },
                        {
                            "weight": 0.4060901276562783
                        },
                        {
                            "weight": 0.4690412767133868
                        },
                        {
                            "weight": -0.43740713823931626
                        },
                        {
                            "weight": 0.33221258187303904
                        },
                        {
                            "weight": 0.3200493621593571
                        },
                        {
                            "weight": -0.4784293082116308
                        },
                        {
                            "weight": -0.3503603757174501
                        },
                        {
                            "weight": 0.4257176473949652
                        },
                        {
                            "weight": 0.007640871963296547
                        },
                        {
                            "weight": -0.15424386305466475
                        },
                        {
                            "weight": 0.143196937583013
                        },
                        {
                            "weight": -0.0007105061647996735
                        }
                    ]
                },
                {
                    "Weights": [
                        {
                            "weight": -0.09249805451487098
                        },
                        {
                            "weight": 0.09179297506892725
                        },
                        {
                            "weight": 0.07345839918286468
                        },
                        {
                            "weight": 0.41257828854610135
                        },
                        {
                            "weight": -0.2657075224191451
                        },
                        {
                            "weight": -0.15303648950673476
                        },
                        {
                            "weight": 0.11084840552455211
                        },
                        {
                            "weight": -0.4613746440370449
                        },
                        {
                            "weight": 0.4049324508732801
                        },
                        {
                            "weight": -0.349808448012829
                        },
                        {
                            "weight": 0.40635678244119366
                        },
                        {
                            "weight": 0.2554292959652046
                        },
                        {
                            "weight": -0.29160643634461164
                        },
                        {
                            "weight": -0.28916137312034207
                        },
                        {
                            "weight": 0.16905138069253944
                        },
                        {
                            "weight": 0.29806210885665485
                        },
                        {
                            "weight": -0.37640691901389833
                        },
                        {
                            "weight": 0.14219578479518913
                        },
                        {
                            "weight": 0.20415223605192834
                        },
                        {
                            "weight": -0.4073656427615162
                        },
                        {
                            "weight": 0.1947886465558729
                        },
                        {
                            "weight": 0.036364817463962695
                        },
                        {
                            "weight": 0.40268371939784087
                        },
                        {
                            "weight": 0.20635933834424214
                        },
                        {
                            "weight": 0.17600444174651264
                        },
                        {
                            "weight": 0.3284013663318014
                        },
                        {
                            "weight": -0.28599978969246137
                        },
                        {
                            "weight": -0.4782394217691568
                        },
                        {
                            "weight": -0.028401696085185613
                        },
                        {
                            "weight": 0.20328970414273895
                        },
                        {
                            "weight": -0.14121886794046445
                        },
                        {
                            "weight": 0.36910024939994346
                        },
                        {
                            "weight": -0.20491732124933848
                        },
                        {
                            "weight": 0.4222395317034049
                        },
                        {
                            "weight": 0.28167853748504
                        },
                        {
                            "weight": 0.01937515679252111
                        },
                        {
                            "weight": -0.23079695826433455
                        },
                        {
                            "weight": -0.10747305699040793
                        },
                        {
                            "weight": 0.04800051275547623
                        },
                        {
                            "weight": -0.32586450739105444
                        },
                        {
                            "weight": 0.03271849499676305
                        },
                        {
                            "weight": -0.045642704803330214
                        },
                        {
                            "weight": 0.41956478857415014
                        },
                        {
                            "weight": 0.23111205865215134
                        },
                        {
                            "weight": 0.1551959220763277
                        },
                        {
                            "weight": 0.0886161688056849
                        },
                        {
                            "weight": 0.029174167047801514
                        },
                        {
                            "weight": 0.26878900306242937
                        },
                        {
                            "weight": -0.26918804686013054
                        },
                        {
                            "weight": -0.26667359690027015
                        },
                        {
                            "weight": 0.35142336030091315
                        },
                        {
                            "weight": 0.41560060015674716
                        },
                        {
                            "weight": 0.25969122056369265
                        },
                        {
                            "weight": 0.25410707923774944
                        },
                        {
                            "weight": 0.1219599380399845
                        },
                        {
                            "weight": -0.06430433768979471
                        },
                        {
                            "weight": 0.08250844556955084
                        },
                        {
                            "weight": 0.32596014834752307
                        },
                        {
                            "weight": -0.05254375945895157
                        },
                        {
                            "weight": -0.44589325097663945
                        },
                        {
                            "weight": 0.02924985249026213
                        },
                        {
                            "weight": 0.2962373730615887
                        },
                        {
                            "weight": 0.413206998423304
                        },
                        {
                            "weight": 0.31433253124092353
                        },
                        {
                            "weight": 0.2184769043039888
                        },
                        {
                            "weight": 0.19488553544733922
                        },
                        {
                            "weight": -0.16629231242755999
                        },
                        {
                            "weight": 0.47767994603965425
                        },
                        {
                            "weight": -0.4125875220040733
                        },
                        {
                            "weight": 0.37170820078892086
                        },
                        {
                            "weight": -0.3481845618124048
                        },
                        {
                            "weight": 0.11013097299268981
                        },
                        {
                            "weight": -0.17393450447541403
                        },
                        {
                            "weight": -0.4286197736992593
                        },
                        {
                            "weight": -0.1587569683551588
                        },
                        {
                            "weight": 0.47126141760091367
                        },
                        {
                            "weight": 0.1499963951064257
                        },
                        {
                            "weight": 0.36041719869264277
                        },
                        {
                            "weight": 0.24005042066334303
                        },
                        {
                            "weight": 0.37080834870729995
                        },
                        {
                            "weight": -0.4062563986686321
                        },
                        {
                            "weight": 0.0914737805032515
                        },
                        {
                            "weight": 0.2864089484030422
                        },
                        {
                            "weight": 0.34343482235606515
                        },
                        {
                            "weight": -0.15441914025899917
                        },
                        {
                            "weight": -0.09163111401797785
                        },
                        {
                            "weight": -0.22086951579473424
                        },
                        {
                            "weight": 0.41808930531055166
                        },
                        {
                            "weight": -0.2656709656704548
                        },
                        {
                            "weight": 0.21658672474631424
                        },
                        {
                            "weight": 0.4621960543339122
                        },
                        {
                            "weight": 0.25357888681980734
                        },
                        {
                            "weight": 0.012824097346898156
                        },
                        {
                            "weight": 0.3754030522962115
                        },
                        {
                            "weight": 0.06791141759972619
                        },
                        {
                            "weight": -0.2686989988101176
                        },
                        {
                            "weight": 0.07028858728254617
                        },
                        {
                            "weight": 0.3916191056331709
                        },
                        {
                            "weight": -0.2910190527704633
                        },
                        {
                            "weight": 0.1477010657394775
                        }
                    ]
                },
                {
                    "Weights": [
                        {
                            "weight": -0.14920361458286813
                        },
                        {
                            "weight": -0.24216796172883737
                        },
                        {
                            "weight": -0.4106071989753317
                        },
                        {
                            "weight": -0.0878233878211227
                        },
                        {
                            "weight": 0.08907506991600389
                        },
                        {
                            "weight": -0.4393457818354227
                        },
                        {
                            "weight": -0.4378269931757017
                        },
                        {
                            "weight": -0.050507731391353394
                        },
                        {
                            "weight": 0.2907046388279202
                        },
                        {
                            "weight": 0.4229813555315981
                        },
                        {
                            "weight": 0.033235869940014484
                        },
                        {
                            "weight": -0.11782158066882825
                        },
                        {
                            "weight": 0.20939030347363563
                        },
                        {
                            "weight": -0.12332930816492499
                        },
                        {
                            "weight": 0.21775927907217263
                        },
                        {
                            "weight": -0.38224081054434217
                        },
                        {
                            "weight": 0.1458011760403407
                        },
                        {
                            "weight": 0.1358485839217196
                        },
                        {
                            "weight": -0.15791177621479696
                        },
                        {
                            "weight": -0.137612099213345
                        },
                        {
                            "weight": 0.09804463779462713
                        },
                        {
                            "weight": -0.40433288985599436
                        },
                        {
                            "weight": 0.3652119981335532
                        },
                        {
                            "weight": -0.026552310370165977
                        },
                        {
                            "weight": 0.15357852774373182
                        },
                        {
                            "weight": -0.4034870006765644
                        },
                        {
                            "weight": -0.45626372354862454
                        },
                        {
                            "weight": 0.04519763291589807
                        },
                        {
                            "weight": -0.2045060534470277
                        },
                        {
                            "weight": 0.18143734219085306
                        },
                        {
                            "weight": -0.19147506158401956
                        },
                        {
                            "weight": 0.1362903319701042
                        },
                        {
                            "weight": 0.42926938092302036
                        },
                        {
                            "weight": -0.11208226055935128
                        },
                        {
                            "weight": -0.45153305631202323
                        },
                        {
                            "weight": 0.018344450378019572
                        },
                        {
                            "weight": -0.06142804193376933
                        },
                        {
                            "weight": -0.3993600490267203
                        },
                        {
                            "weight": 0.4578367189866661
                        },
                        {
                            "weight": -0.27072340356685376
                        },
                        {
                            "weight": -0.47637869395612675
                        },
                        {
                            "weight": -0.008927411073319347
                        },
                        {
                            "weight": 0.10145501576431792
                        },
                        {
                            "weight": 0.22301160997851355
                        },
                        {
                            "weight": 0.35774328076175566
                        },
                        {
                            "weight": -0.18078570562451413
                        },
                        {
                            "weight": 0.3307707994341714
                        },
                        {
                            "weight": 0.003544456802096474
                        },
                        {
                            "weight": 0.4450628782972056
                        },
                        {
                            "weight": -0.32714097724163016
                        },
                        {
                            "weight": 0.3559323575887514
                        },
                        {
                            "weight": 0.04310751563082804
                        },
                        {
                            "weight": -0.24147386709762453
                        },
                        {
                            "weight": 0.22114435526129983
                        },
                        {
                            "weight": -0.48344479520034267
                        },
                        {
                            "weight": 0.4021046606461074
                        },
                        {
                            "weight": 0.30765735458473553
                        },
                        {
                            "weight": -0.44970851828796254
                        },
                        {
                            "weight": -0.05269770643799454
                        },
                        {
                            "weight": -0.39684869932329686
                        },
                        {
                            "weight": 0.2217288239028905
                        },
                        {
                            "weight": 0.24582723197798584
                        },
                        {
                            "weight": 0.22944163310781196
                        },
                        {
                            "weight": 0.15099820436490607
                        },
                        {
                            "weight": -0.3662550285813655
                        },
                        {
                            "weight": 0.2679085767957887
                        },
                        {
                            "weight": -0.33065734525707424
                        },
                        {
                            "weight": 0.06231692948486511
                        },
                        {
                            "weight": 0.35854852776906854
                        },
                        {
                            "weight": -0.3728206267314128
                        },
                        {
                            "weight": 0.28159352591801134
                        },
                        {
                            "weight": 0.37216983427394645
                        },
                        {
                            "weight": 0.10825196219526789
                        },
                        {
                            "weight": -0.11695145831767068
                        },
                        {
                            "weight": 0.09518144379145532
                        },
                        {
                            "weight": -0.03400475704297645
                        },
                        {
                            "weight": 0.19226283605781513
                        },
                        {
                            "weight": -0.07404775723537793
                        },
                        {
                            "weight": 0.45953969975912
                        },
                        {
                            "weight": 0.1373257143550206
                        },
                        {
                            "weight": 0.0888112655229919
                        },
                        {
                            "weight": 0.31547205688686675
                        },
                        {
                            "weight": -0.319566770475156
                        },
                        {
                            "weight": 0.33733739842536736
                        },
                        {
                            "weight": 0.0366164116871619
                        },
                        {
                            "weight": -0.313011565214494
                        },
                        {
                            "weight": 0.23944205861047008
                        },
                        {
                            "weight": -0.15572623372810251
                        },
                        {
                            "weight": -0.2727200835024566
                        },
                        {
                            "weight": -0.3132556482885292
                        },
                        {
                            "weight": -0.06257493305139938
                        },
                        {
                            "weight": 0.4390087404004339
                        },
                        {
                            "weight": 0.42257158415046125
                        },
                        {
                            "weight": -0.3331333004045921
                        },
                        {
                            "weight": 0.09000694476533999
                        },
                        {
                            "weight": -0.44368344489190886
                        },
                        {
                            "weight": 0.4247752768522014
                        },
                        {
                            "weight": 0.24934959950826585
                        },
                        {
                            "weight": 0.1086334845929563
                        },
                        {
                            "weight": 0.28332380416026515
                        }
                    ]
                },
                {
                    "Weights": [
                        {
                            "weight": -0.10977298995003709
                        },
                        {
                            "weight": 0.15549363797320692
                        },
                        {
                            "weight": -0.025219065027879073
                        },
                        {
                            "weight": 0.2632755517322921
                        },
                        {
                            "weight": -0.2493249186963425
                        },
                        {
                            "weight": 0.43077617792914435
                        },
                        {
                            "weight": -0.04446161220989264
                        },
                        {
                            "weight": 0.16662732406827963
                        },
                        {
                            "weight": 0.3903158772272597
                        },
                        {
                            "weight": -0.4071358983158767
                        },
                        {
                            "weight": -0.24456141086973315
                        },
                        {
                            "weight": 0.20578793365312176
                        },
                        {
                            "weight": -0.2367026687910327
                        },
                        {
