{
    "Layers": [
        {
            "Biases": [
                {
                    "weight": 0.19905624842692915
                },
                {
                    "weight": 0.23511911912128292
                },
                {
                    "weight": 0.24259249771134572
                },
                {
                    "weight": 0.2719705134173718
                },
                {
                    "weight": 0.12772537129825234
                },
                {
                    "weight": 0.3881722096391823
                },
                {
                    "weight": 0.4677240508225392
                },
                {
                    "weight": 0.36084228879811353
                },
                {
                    "weight": -0.1578564888461756
                },
                {
                    "weight": 0.3561789425351559
                },
                {
                    "weight": -0.15130998827578035
                },
                {
                    "weight": 0.262239529933892
                },
                {
                    "weight": 0.16113624575600782
                },
                {
                    "weight": -0.1352024752624344
                },
                {
                    "weight": -0.10846853619370078
                },
                {
                    "weight": -0.1270649608909455
                },
                {
                    "weight": 0.00441282733549031
                },
                {
                    "weight": 0.4831212127968302
                },
                {
                    "weight": 0.4610619699261439
                },
                {
                    "weight": -0.052773559225152034
                },
                {
                    "weight": 0.43916999015452807
                },
                {
                    "weight": 0.24374890442646513
                },
                {
                    "weight": 0.4715646236024632
                },
                {
                    "weight": -0.32260667310217706
                },
                {
                    "weight": 0.24962421169487026
                },
                {
                    "weight": -0.26394375403129666
                },
                {
                    "weight": 0.031915460350883884
                },
                {
                    "weight": 0.3783902224425181
                },
                {
                    "weight": 0.4613560973626357
                },
                {
                    "weight": 0.08063662875007671
                },
                {
                    "weight": 0.22741503028078702
                },
                {
                    "weight": -0.3892524505403137
                },
                {
                    "weight": -0.05424669366993318
                },
                {
                    "weight": -0.014975202779739738
                },
                {
                    "weight": 0.4905325364696479
                },
                {
                    "weight": 0.10000189353246336
                },
                {
                    "weight": -0.3083949210301018
                },
                {
                    "weight": 0.22306614268248248
                },
                {
                    "weight": -0.4247726269926748
                },
                {
                    "weight": 0.060232282020259764
                },
                {
                    "weight": -0.4457401895875764
                },
                {
                    "weight": 0.37599997129105034
                },
                {
                    "weight": 0.30769229320701785
                },
                {
                    "weight": 0.00047302191633402657
                },
                {
                    "weight": -0.19086031738243076
                },
                {
                    "weight": 0.11522373911702255
                },
                {
                    "weight": 0.2916602296017391
                },
                {
                    "weight": -0.15713801905379537
                },
                {
                    "weight": -0.258049793591746
                },
                {
                    "weight": -0.05001312454697354
                },
                {
                    "weight": -0.08580157206663935
                },
                {
                    "weight": -0.42624514645722
                },
                {
                    "weight": -0.337594942370241
                },
                {
                    "weight": 0.15171366287475152
                },
                {
                    "weight": 0.21907399617558065
                },
                {
                    "weight": -0.3858897312338882
                },
                {
                    "weight": -0.4471212724629423
                },
                {
                    "weight": -0.4327051676217025
                },
                {
                    "weight": -0.46425119518966
                },
                {
                    "weight": 0.4095967431178301
                },
                {
                    "weight": -0.2105247253321692
                },
                {
                    "weight": 0.37279943112414304
                },
                {
                    "weight": 0.280316760563439
                }
            ],
            "Perceptrons": [
                {
                    "Weights": [
                        {
                            "weight": -0.47422092193002857
                        },
                        {
                            "weight": -0.007488930349931533
                        },
                        {
                            "weight": 0.2629515691720655
                        },
                        {
                            "weight": 0.20970926845898352
                        },
                        {
                            "weight": 0.03807527296621127
                        },
                        {
                            "weight": -0.4411948052007681
                        },
                        {
                            "weight": 0.016222733988530358
                        },
                        {
                            "weight": -0.2905517802762574
                        },
                        {
                            "weight": -0.20354244764593543
                        },
                        {
                            "weight": -0.4386330764454943
                        },
                        {
                            "weight": -0.29287487733777373
                        },
                        {
                            "weight": -0.21897676290896573
                        },
                        {
                            "weight": -0.13598848869371627
                        },
                        {
                            "weight": -0.2692463326031558
                        },
                        {
                            "weight": 0.3265287533572543
                        },
                        {
                            "weight": -0.2502965648799653
                        },
                        {
                            "weight": -0.21856944222867924
                        },
                        {
                            "weight": -0.23014220531105167
                        },
                        {
                            "weight": -0.24395895520875183
                        },
                        {
                            "weight": -0.03313041603804118
                        },
                        {
                            "weight": 0.4024509143421664
                        },
                        {
                            "weight": 0.040341315628188434
                        },
                        {
                            "weight": 0.49726875106676893
                        },
                        {
                            "weight": 0.0538968810224425
                        },
                        {
                            "weight": -0.34999014055821587
                        },
                        {
                            "weight": 0.13840628764517904
                        },
                        {
                            "weight": 0.15311628481052642
                        },
                        {
                            "weight": -0.18780123142888827
                        },
                        {
                            "weight": -0.3372166829636398
                        },
                        {
                            "weight": -0.21085653482976208
                        },
                        {
                            "weight": 0.3254428125896691
                        },
                        {
                            "weight": -0.3651066640927953
                        },
                        {
                            "weight": 0.012809969397638898
                        },
                        {
                            "weight": 0.08839438176173464
                        },
                        {
                            "weight": 0.33460260436618827
                        },
                        {
                            "weight": -0.44911475809715445
                        },
                        {
                            "weight": 0.13719957656096649
                        },
                        {
                            "weight": -0.1491746621062861
                        },
                        {
                            "weight": -0.24966653791240723
                        },
                        {
                            "weight": 0.42365712891503104
                        },
                        {
                            "weight": -0.09780773855178043
                        },
                        {
                            "weight": -0.05254141525018097
                        },
                        {
                            "weight": -0.2953196339939347
                        },
                        {
                            "weight": 0.25620377275450334
                        },
                        {
                            "weight": 0.16821225214666335
                        },
                        {
                            "weight": -0.468790881097685
                        },
                        {
                            "weight": 0.495907207874538
                        },
                        {
                            "weight": 0.4396428099179839
                        },
                        {
                            "weight": -0.2089330864087367
                        },
                        {
                            "weight": -0.2480517477952185
                        },
                        {
                            "weight": -0.09348760612005719
                        },
                        {
                            "weight": -0.30648217206657036
                        },
                        {
                            "weight": 0.2822895678329699
                        },
                        {
                            "weight": -0.09621885551429299
                        },
                        {
                            "weight": 0.23741470895587224
                        },
                        {
                            "weight": 0.422299427274754
                        },
                        {
                            "weight": -0.457812567869114
                        },
                        {
                            "weight": -0.10946900669460602
                        },
                        {
                            "weight": -0.26550180461513895
                        },
                        {
                            "weight": -0.3050292508327538
                        },
                        {
                            "weight": 0.16967445847563178
                        },
                        {
                            "weight": -0.4400589920254699
                        },
                        {
                            "weight": -0.18013591492554915
                        },
                        {
                            "weight": -0.3175155725877339
                        },
                        {
                            "weight": 0.1383353897362647
                        },
                        {
                            "weight": -0.34553331102036555
                        },
                        {
                            "weight": -0.2766303302238836
                        },
                        {
                            "weight": -0.22446503416377356
                        },
                        {
                            "weight": -0.004707973126651721
                        },
                        {
                            "weight": -0.03629686813629085
                        },
                        {
                            "weight": -0.3008079052487425
                        },
                        {
                            "weight": 0.3874842883215678
                        },
                        {
                            "weight": 0.4011617166135282
                        },
                        {
                            "weight": -0.1061275392426772
                        },
                        {
                            "weight": 0.14368806061506656
                        },
                        {
                            "weight": 0.06937396829918674
                        },
                        {
                            "weight": -0.08491842034036218
                        },
                        {
                            "weight": 0.13959526848960446
                        },
                        {
                            "weight": 0.009016778217170729
                        },
                        {
                            "weight": 0.1961484932509011
                        },
                        {
                            "weight": 0.381543520694386
                        },
                        {
                            "weight": 0.4055291720971135
                        },
                        {
                            "weight": 0.37966632118433075
                        },
                        {
                            "weight": 0.16383308852735579
                        },
                        {
                            "weight": -0.1906896838781842
                        },
                        {
                            "weight": 0.1170810296791982
                        },
                        {
                            "weight": 0.08613251534110522
                        },
                        {
                            "weight": -0.15850225174729815
                        },
                        {
                            "weight": 0.49761202344559696
                        },
                        {
                            "weight": 0.31063071118697094
                        },
                        {
                            "weight": 0.026468497419947945
                        },
                        {
                            "weight": 0.16728648146022407
                        },
                        {
                            "weight": 0.360571719161501
                        },
                        {
                            "weight": 0.3363325824943989
                        },
                        {
                            "weight": 0.33977090933349485
                        },
                        {
                            "weight": -0.0010928915632389957
                        },
                        {
                            "weight": 0.48079927147403323
                        },
                        {
                            "weight": -0.43685942135139344
                        },
                        {
                            "weight": 0.2644420742729875
                        },
                        {
                            "weight": -0.023908702113623115
                        }
                    ]
                },
                {
                    "Weights": [
                        {
                            "weight": -0.18736463464673825
                        },
                        {
                            "weight": -0.07645048225133239
                        },
                        {
                            "weight": -0.0819945733351608
                        },
                        {
                            "weight": -0.15249337067943686
                        },
                        {
                            "weight": 0.49726364682301116
                        },
                        {
                            "weight": 0.47737939496402604
                        },
                        {
                            "weight": 0.25258820898020096
                        },
                        {
                            "weight": 0.13685891485161095
                        },
                        {
                            "weight": -0.013603827279807912
                        },
                        {
                            "weight": -0.051263297768897986
                        },
                        {
                            "weight": 0.018402435084992286
                        },
                        {
                            "weight": -0.10807465564369906
                        },
                        {
                            "weight": -0.17159697704557186
                        },
                        {
                            "weight": -0.3177644768486565
                        },
                        {
                            "weight": 0.19123566093912148
                        },
                        {
                            "weight": 0.4354840530946311
                        },
                        {
                            "weight": 0.2583680389534533
                        },
                        {
                            "weight": -0.4672665912691814
                        },
                        {
                            "weight": 0.4330960760792233
                        },
                        {
                            "weight": 0.06899874967941966
                        },
                        {
                            "weight": 0.04920190661177126
                        },
                        {
                            "weight": 0.10038255707844279
                        },
                        {
                            "weight": -0.07042953162008408
                        },
                        {
                            "weight": -0.11446551135483451
                        },
                        {
                            "weight": -0.05984653404906698
                        },
                        {
                            "weight": 0.41847757681667686
                        },
                        {
                            "weight": -0.13366623988080129
                        },
                        {
                            "weight": -0.006705955400460373
                        },
                        {
                            "weight": 0.18291965062865967
                        },
                        {
                            "weight": 0.33242505800557554
                        },
                        {
                            "weight": -0.48986224534914935
                        },
                        {
                            "weight": 0.1365538196529047
                        },
                        {
                            "weight": -0.30399935624748436
                        },
                        {
                            "weight": -0.08185681868431005
                        },
                        {
                            "weight": 0.4740604489734678
                        },
                        {
                            "weight": -0.3067357098854779
                        },
                        {
                            "weight": -0.10447742372028412
                        },
                        {
                            "weight": 0.22664865795366862
                        },
                        {
                            "weight": 0.3201232049661331
                        },
                        {
                            "weight": 0.37191874899990796
                        },
                        {
                            "weight": -0.324614640276234
                        },
                        {
                            "weight": -0.16147436040987928
                        },
                        {
                            "weight": -0.23615590664379105
                        },
                        {
                            "weight": -0.006211617321805862
                        },
                        {
                            "weight": 0.010761163202468782
                        },
                        {
                            "weight": 0.4450797542953304
                        },
                        {
                            "weight": -0.07072756468817948
                        },
                        {
                            "weight": -0.2308707983050825
                        },
                        {
                            "weight": 0.46781316302614895
                        },
                        {
                            "weight": -0.13763148906996076
                        },
                        {
                            "weight": 0.32812795137433703
                        },
                        {
                            "weight": 0.017015069176915643
                        },
                        {
                            "weight": 0.45275106846948676
                        },
                        {
                            "weight": -0.24230158070675173
                        },
                        {
                            "weight": 0.3925495582830858
                        },
                        {
                            "weight": -0.10709546604058495
                        },
                        {
                            "weight": -0.32382400435107944
                        },
                        {
                            "weight": -0.24111668205872028
                        },
                        {
                            "weight": 0.37619857901995934
                        },
                        {
                            "weight": 0.3490956462775803
                        },
                        {
                            "weight": -0.4086916245141493
                        },
                        {
                            "weight": 0.3763363336708101
                        },
                        {
                            "weight": -0.014350534530519765
                        },
                        {
                            "weight": -0.22269098076163368
                        },
                        {
                            "weight": -0.20552048501350006
                        },
                        {
                            "weight": -0.040290085557051936
                        },
                        {
                            "weight": -0.03942669064711163
                        },
                        {
                            "weight": 0.1800020912662158
                        },
                        {
                            "weight": -0.31364142806438794
                        },
                        {
                            "weight": -0.2193034861419832
                        },
                        {
                            "weight": 0.05192083980511908
                        },
                        {
                            "weight": -0.14825606834062194
                        },
                        {
                            "weight": 0.10922215390914225
                        },
                        {
                            "weight": 0.305764933161328
                        },
                        {
                            "weight": 0.33553231433757225
                        },
                        {
                            "weight": -0.38001668334939365
                        },
                        {
                            "weight": 0.25084468699565377
                        },
                        {
                            "weight": -0.23519525035060718
                        },
                        {
                            "weight": -0.12088748165447616
                        },
                        {
                            "weight": 0.2186578500218027
                        },
                        {
                            "weight": 0.117173260579432
                        },
                        {
                            "weight": -0.29275953074114375
                        },
                        {
                            "weight": -0.2643270812622863
                        },
                        {
                            "weight": 0.06992432858791409
                        },
                        {
                            "weight": -0.045061111447895486
                        },
                        {
                            "weight": -0.37177752344020526
                        },
                        {
                            "weight": 0.4528288630083337
                        },
                        {
                            "weight": 0.12111488420102512
                        },
                        {
                            "weight": -0.12289420549892549
                        },
                        {
                            "weight": 0.32902744156728847
                        },
                        {
                            "weight": -0.02978946998239934
                        },
                        {
                            "weight": -0.041585829552070186
                        },
                        {
                            "weight": 0.20536377477709378
                        },
                        {
                            "weight": 0.44585999594808556
                        },
                        {
                            "weight": 0.22572318968629612
                        },
                        {
                            "weight": 0.4898432897635937
                        },
                        {
                            "weight": -0.09443009006997105
                        },
                        {
                            "weight": -0.31370350096081545
                        },
                        {
                            "weight": 0.16984538056880494
                        },
                        {
                            "weight": 0.08192848186564095
                        }
                    ]
                },
                {
                    "Weights": [
                        {
                            "weight": -0.06676319555694388
                        },
                        {
                            "weight": 0.3988967162831206
                        },
                        {
                            "weight": -0.43378483365466114
                        },
                        {
                            "weight": -0.47246884692575264
                        },
                        {
                            "weight": 0.2592047274015866
                        },
                        {
                            "weight": -0.32380151700405474
                        },
                        {
                            "weight": 0.2683758405309058
                        },
                        {
                            "weight": -0.4759905234100253
                        },
                        {
                            "weight": 0.04531100134146904
                        },
                        {
                            "weight": -0.012966309908296114
                        },
                        {
                            "weight": 0.13118273763041144
                        },
                        {
                            "weight": 0.24255147060032534
                        },
                        {
                            "weight": 0.2127066088294176
                        },
                        {
                            "weight": -0.29889293424267926
                        },
                        {
                            "weight": -0.3025096413085747
                        },
                        {
                            "weight": 0.33092908585021696
                        },
                        {
                            "weight": -0.34606407169535014
                        },
                        {
                            "weight": 0.3086052428924503
                        },
                        {
                            "weight": -0.2919651201097132
                        },
                        {
                            "weight": 0.4729633698719383
                        },
                        {
                            "weight": -0.22118422708994906
                        },
                        {
                            "weight": 0.15644905033821666
                        },
                        {
                            "weight": 0.1783271446490321
                        },
                        {
                            "weight": -0.2753242316028682
                        },
                        {
                            "weight": -0.11782775997548728
                        },
                        {
                            "weight": 0.16817043395162112
                        },
                        {
                            "weight": 0.12024567832716071
                        },
                        {
                            "weight": 0.058468739063697206
                        },
                        {
                            "weight": -0.161984185479574
                        },
                        {
                            "weight": -0.29782584026820297
                        },
                        {
                            "weight": -0.484538248500106
                        },
                        {
                            "weight": 0.04978203489435007
                        },
                        {
                            "weight": -0.37415342720418865
                        },
                        {
                            "weight": -0.4283230816937625
                        },
                        {
                            "weight": 0.06731318796859731
                        },
                        {
                            "weight": 0.3750513001973981
                        },
                        {
                            "weight": -0.26212459869781723
                        },
                        {
                            "weight": -0.16431097196150152
                        },
                        {
                            "weight": 0.3890607772483773
                        },
                        {
                            "weight": 0.27318640310465647
                        },
                        {
                            "weight": 0.31272271813020236
                        },
                        {
                            "weight": 0.020243514417784048
                        },
                        {
                            "weight": 0.01573787324397724
                        },
                        {
                            "weight": 0.025429326959619858
                        },
                        {
                            "weight": 0.21135058017510477
                        },
                        {
                            "weight": 0.2032282323964072
                        },
                        {
                            "weight": -0.1436415876511678
                        },
                        {
                            "weight": 0.3552865089407594
                        },
                        {
                            "weight": 0.011833474827852797
                        },
                        {
                            "weight": 0.05439329223911893
                        },
                        {
                            "weight": 0.32824987835169295
                        },
                        {
                            "weight": 0.2806492477379037
                        },
                        {
                            "weight": -0.2891576574226644
                        },
                        {
                            "weight": 0.0065770225397203674
                        },
                        {
                            "weight": 0.49532501613503555
                        },
                        {
                            "weight": 0.08301458260184835
                        },
                        {
                            "weight": -0.3252525435086584
                        },
                        {
                            "weight": 0.11557069400119169
                        },
                        {
                            "weight": -0.35851667879545907
                        },
                        {
                            "weight": 0.002763271011767543
                        },
                        {
                            "weight": 0.30774485373298865
                        },
                        {
                            "weight": -0.3530549272955651
                        },
                        {
                            "weight": -0.4474546945548871
                        },
                        {
                            "weight": 0.4235914265288
                        },
                        {
                            "weight": -0.2913780089893276
                        },
                        {
                            "weight": 0.10985849341371023
                        },
                        {
                            "weight": 0.29864272672619807
                        },
                        {
                            "weight": -0.06350260722614015
                        },
                        {
                            "weight": 0.43554752191321344
                        },
                        {
                            "weight": 0.18770350351357068
                        },
                        {
                            "weight": -0.29031620458248825
                        },
                        {
                            "weight": 0.24827023958241112
                        },
                        {
                            "weight": -0.29205298252964995
                        },
                        {
                            "weight": 0.21542166866148893
                        },
                        {
                            "weight": -0.22630043391897364
                        },
                        {
                            "weight": 0.4092975976454549
                        },
                        {
                            "weight": -0.0813500994031085
                        },
                        {
                            "weight": 0.12005797842985855
                        },
                        {
                            "weight": 0.26458410612520944
                        },
                        {
                            "weight": 0.4204833758857489
                        },
                        {
                            "weight": -0.3255487293310224
                        },
                        {
                            "weight": 0.09283398447690261
                        },
                        {
                            "weight": 0.20113262316264802
                        },
                        {
                            "weight": -0.12470638675368684
                        },
                        {
                            "weight": -0.40058899344438176
                        },
                        {
                            "weight": 0.19645763929768356
                        },
                        {
                            "weight": 0.4483081958481615
                        },
                        {
                            "weight": -0.23584153695304022
                        },
                        {
                            "weight": -0.18797166716212949
                        },
                        {
                            "weight": -0.4102084834083023
                        },
                        {
                            "weight": 0.2569217340587273
                        },
                        {
                            "weight": -0.3802268134291409
                        },
                        {
                            "weight": -0.2732634107038674
                        },
                        {
                            "weight": 0.29946703950384035
                        },
                        {
                            "weight": -0.4566353873613455
                        },
                        {
                            "weight": -0.07464141923219031
                        },
                        {
                            "weight": -0.09067446708244942
                        },
                        {
                            "weight": 0.3320073393648524
                        },
                        {
                            "weight": 0.35185597354166964
                        },
                        {
                            "weight": -0.15512694563024065
                        }
                    ]
                },
                {
                    "Weights": [
                        {
                            "weight": 0.4680129850413711
                        },
                        {
                            "weight": 0.20366127898155761
                        },
                        {
                            "weight": 0.21765785988776842
                        },
                        {
                            "weight": 0.2669614371596656
                        },
                        {
                            "weight": -0.14315713996680318
                        },
                        {
                            "weight": 0.12695545753322335
                        },
                        {
                            "weight": -0.31438866224344286
                        },
                        {
                            "weight": 0.4669008384630554
                        },
                        {
                            "weight": -0.10846043680257184
                        },
                        {
                            "weight": -0.39390528681869863
                        },
                        {
                            "weight": -0.3586478913289718
                        },
                        {
                            "weight": 0.4743735476743307
                        },
                        {
                            "weight": 0.2972273363439494
                        },
                        {
                            "weight": 0.006645721917341252
                        },
                        {
                            "weight": -0.4262154457700511
                        },
                        {
                            "weight": -0.0063150248193717395
                        },
                        {
                            "weight": -0.04504608269550192
                        },
                        {
                            "weight": -0.17205698272309122
                        },
                        {
                            "weight": 0.2957133084795035
                        },
                        {
                            "weight": 0.03474543389619589
                        },
                        {
                            "weight": -0.4151352486643639
                        },
                        {
                            "weight": 0.4054864950503625
                        },
                        {
                            "weight": 0.25148202365333305
                        },
                        {
                            "weight": 0.37433179083947643
                        },
                        {
                            "weight": 0.43885110768901703
                        },
                        {
                            "weight": -0.3231593960398619
                        },
                        {
                            "weight": -0.21634267670397772
                        },
                        {
                            "weight": 0.2708584470538695
                        },
                        {
                            "weight": -0.471303422959197
                        },
                        {
                            "weight": 0.11853037766578156
                        },
                        {
                            "weight": -0.20943071098971683
                        },
                        {
                            "weight": -0.41976365446102043
                        },
                        {
                            "weight": 0.20167367161795202
                        },
                        {
                            "weight": 0.4982271493590563
                        },
                        {
                            "weight": 0.3371977826986452
                        },
                        {
                            "weight": -0.44148346880985584
                        },
                        {
                            "weight": 0.125182606431275
                        },
                        {
                            "weight": -0.47719088000580245
                        },
                        {
                            "weight": -0.47458263080780516
                        },
                        {
                            "weight": -0.4832778308323016
                        },
                        {
                            "weight": -0.3810961668245011
                        },
                        {
                            "weight": -0.3432305216757723
                        },
                        {
                            "weight": 0.4810957173030338
                        },
                        {
                            "weight": 0.40613116998045296
                        },
                        {
                            "weight": 0.15341520024156907
                        },
                        {
                            "weight": -0.445119728928022
                        },
                        {
                            "weight": -0.10018385529992352
                        },
                        {
                            "weight": -0.39163088245393285
                        },
                        {
                            "weight": -0.12717671165111316
                        },
                        {
                            "weight": -0.30447054728142475
                        },
                        {
                            "weight": 0.13311455144226292
                        },
                        {
                            "weight": -0.05231196031547708
                        },
                        {
                            "weight": -0.39898405269206694
                        },
                        {
                            "weight": -0.1154034253654086
                        },
                        {
                            "weight": -0.17798016947600065
                        },
                        {
                            "weight": -0.4601329450030499
                        },
                        {
                            "weight": 0.051437178594729516
                        },
                        {
                            "weight": 0.09567715382002162
                        },
                        {
                            "weight": 0.3007255020508196
                        },
                        {
                            "weight": 0.07013375563553237
                        },
                        {
                            "weight": -0.2857924685141968
                        },
                        {
                            "weight": -0.4087052093999019
                        },
                        {
                            "weight": 0.1403701011745121
                        },
                        {
                            "weight": 0.4058812031037553
                        },
                        {
                            "weight": -0.41047806050185026
                        },
                        {
                            "weight": -0.02243211612684287
                        },
                        {
                            "weight": 0.4543977342938994
                        },
                        {
                            "weight": 0.20470454592942466
                        },
                        {
                            "weight": -0.009622996132645278
                        },
                        {
                            "weight": 0.46981510348609423
                        },
                        {
                            "weight": 0.21142671555812786
                        },
                        {
                            "weight": 0.0992808375038583
                        },
                        {
                            "weight": -0.37341541865068273
                        },
                        {
                            "weight": 0.19252243240015698
                        },
                        {
                            "weight": 0.005412007023306575
                        },
                        {
                            "weight": 0.269999782051891
                        },
                        {
                            "weight": 0.237402703472135
                        },
                        {
                            "weight": 0.395228151723383
                        },
                        {
                            "weight": 0.36836889959795815
                        },
                        {
                            "weight": -0.3897740086399829
                        },
                        {
                            "weight": -0.4092423955580417
                        },
                        {
                            "weight": 0.0014834505792163943
                        },
                        {
                            "weight": 0.04791403150554474
                        },
                        {
                            "weight": -0.3182264482501086
                        },
                        {
                            "weight": 0.37608002567481247
                        },
                        {
                            "weight": 0.359933862029544
                        },
                        {
                            "weight": -0.2883593932531585
                        },
                        {
                            "weight": -0.0724827961914627
                        },
                        {
                            "weight": -0.04438898461143903
                        },
                        {
                            "weight": -0.4876338916633436
                        },
                        {
                            "weight": 0.48765095990507445
                        },
                        {
                            "weight": 0.15981854687436414
                        },
                        {
                            "weight": -0.4063391006022408
                        },
                        {
                            "weight": 0.12802106061858176
                        },
                        {
                            "weight": 0.06569974951711477
                        },
                        {
                            "weight": -0.32681716110409104
                        },
                        {
                            "weight": -0.3944110559692658
                        },
                        {
                            "weight": 0.020097483350009382
                        },
                        {
                            "weight": 0.36788738528633835
                        },
                        {
                            "weight": 0.08596594835909355
                        }
                    ]
                },
                {
                    "Weights": [
                        {
                            "weight": -0.11359781895931709
                        },
                        {
                            "weight": -0.4632660609312663
                        },
                        {
                            "weight": 0.10649716818542088
                        },
                        {
                            "weight": -0.22816346767738627
                        },
                        {
                            "weight": 0.18065879242525373
                        },
                        {
                            "weight": -0.12350305022369279
                        },
                        {
                            "weight": 0.4992392357947487
                        },
                        {
                            "weight": 0.07588694368763227
                        },
                        {
                            "weight": -0.2551341510867393
                        },
                        {
                            "weight": -0.39053477330623887
                        },
                        {
                            "weight": 0.1566445481295905
                        },
                        {
                            "weight": 0.23634929995348186
                        },
                        {
                            "weight": 0.14737925819930586
                        },
                        {
                            "weight": 0.3284181003404866
                        },
                        {
                            "weight": 0.11242932516728965
                        },
                        {
                            "weight": 0.007313119767845211
                        },
                        {
                            "weight": -0.4599412933736766
                        },
                        {
                            "weight": -0.4600534714851777
                        },
                        {
                            "weight": 0.45292413561741085
                        },
                        {
                            "weight": -0.45757518457601554
                        },
                        {
                            "weight": -0.472402512041108
                        },
                        {
                            "weight": 0.11274268203077031
                        },
                        {
                            "weight": -0.3739142851782563
                        },
                        {
                            "weight": 0.14561854903847837
                        },
                        {
                            "weight": -0.321557568452115
                        },
                        {
                            "weight": -0.2107314462823474
                        },
                        {
                            "weight": 0.24120749306921263
                        },
                        {
                            "weight": 0.18853991489789446
                        },
                        {
                            "weight": -0.34284406145701374
                        },
                        {
                            "weight": -0.1728265590326984
                        },
                        {
                            "weight": -0.3215474987270066
                        },
                        {
                            "weight": 0.2264700389264478
                        },
                        {
                            "weight": 0.002420226369248768
                        },
                        {
                            "weight": 0.27494966991941894
                        },
                        {
                            "weight": 0.4883065712490615
                        },
                        {
                            "weight": -0.31692098166650207
                        },
                        {
                            "weight": -0.34855338076527853
                        },
                        {
                            "weight": 0.48754580658280566
                        },
                        {
                            "weight": 0.24896596248213476
                        },
                        {
                            "weight": -0.11368753139101317
                        },
                        {
                            "weight": -0.4029889667234332
                        },
                        {
                            "weight": -0.09438948984927936
                        },
                        {
                            "weight": -0.3773382318985361
                        },
                        {
                            "weight": 0.23439029147587265
                        },
                        {
                            "weight": -0.2659713899697975
                        },
                        {
                            "weight": 0.22509109326875354
                        },
                        {
                            "weight": -0.25829658875628214
                        },
                        {
                            "weight": -0.23591268288246942
                        },
                        {
                            "weight": 0.2550376217835758
                        },
                        {
                            "weight": -0.30537245359987597
                        },
                        {
                            "weight": -0.20348786745848502
                        },
                        {
                            "weight": 0.27263511020347253
                        },
                        {
                            "weight": 0.2973702284308942
                        },
                        {
                            "weight": -0.08740215263674134
                        },
                        {
                            "weight": -0.08174634121905372
                        },
                        {
                            "weight": 0.4658126599787793
                        },
                        {
                            "weight": 0.19186640108091124
                        },
                        {
                            "weight": -0.34053884861084577
                        },
                        {
                            "weight": 0.15435257487667386
                        },
                        {
                            "weight": 0.3390223400849022
                        },
                        {
                            "weight": -0.023365407182539544
                        },
                        {
                            "weight": 0.32280507614966714
                        },
                        {
                            "weight": 0.06549237855034518
                        },
                        {
                            "weight": 0.4690548191867092
                        },
                        {
                            "weight": 0.0977547456080814
                        },
                        {
                            "weight": 0.0537989497994068
                        },
                        {
                            "weight": -0.3478661624797928
                        },
                        {
                            "weight": 0.23920136530380764
                        },
                        {
                            "weight": 0.04134475592120779
                        },
                        {
                            "weight": 0.391099800002342
                        },
                        {
                            "weight": -0.37448616654821026
                        },
                        {
                            "weight": 0.12835578919777457
                        },
                        {
                            "weight": -0.20328969030794208
                        },
                        {
                            "weight": -0.2618243984467463
                        },
                        {
                            "weight": -0.13725391932635284
                        },
                        {
                            "weight": 0.020738920183265175
                        },
                        {
                            "weight": 0.4532666948220071
                        },
                        {
                            "weight": 0.09444949191736496
                        },
                        {
                            "weight": 0.2748262373007956
                        },
                        {
                            "weight": 0.20830431614457823
                        },
                        {
                            "weight": 0.279077038317489
                        },
                        {
                            "weight": -0.42866163061869406
                        },
                        {
                            "weight": -0.019060574112953865
                        },
                        {
                            "weight": 0.07644726628737863
                        },
                        {
                            "weight": -0.026063783255435402
                        },
                        {
                            "weight": 0.3891930846679924
                        },
                        {
                            "weight": 0.04225992626615793
                        },
                        {
                            "weight": -0.33419738263552884
                        },
                        {
                            "weight": -0.4513457639428534
                        },
                        {
                            "weight": -0.3033874993181729
                        },
                        {
                            "weight": 0.49482495744937327
                        },
                        {
                            "weight": 0.01528882887460703
                        },
                        {
                            "weight": -0.4805824236295104
                        },
                        {
                            "weight": 0.06031733599971856
                        },
                        {
                            "weight": -0.015656352399688378
                        },
                        {
                            "weight": 0.10717232243957564
                        },
                        {
                            "weight": -0.3858837146618793
                        },
                        {
                            "weight": 0.12647748512051882
                        },
                        {
                            "weight": -0.15362631271762134
                        },
                        {
                            "weight": 0.14546104125932835
                        }
                    ]
                },
                {
                    "Weights": [
                        {
                            "weight": 0.40420114993779044
                        },
                        {
                            "weight": 0.4814035757637599
                        },
                        {
                            "weight": 0.30428759481491874
                        },
                        {
                            "weight": 0.19006312228742206
                        },
                        {
                            "weight": 0.12656291113075002
                        },
                        {
                            "weight": -0.17497348546282088
                        },
                        {
                            "weight": 0.14332981664842448
                        },
                        {
                            "weight": -0.27898759741288964
                        },
                        {
                            "weight": -0.4001472486230299
                        },
                        {
                            "weight": -0.1483658676680018
                        },
                        {
                            "weight": 0.4900894409045994
                        },
                        {
                            "weight": -0.338808879241724
                        },
                        {
                            "weight": 0.322573558680049
                        },
                        {
                            "weight": 0.06653670673097334
                        },
                        {
                            "weight": 0.12512733750284055
                        },
                        {
                            "weight": 0.21176664288703662
                        },
                        {
                            "weight": -0.3912033674638734
                        },
                        {
                            "weight": 0.28092995486731165
                        },
                        {
                            "weight": 0.2504208789441831
                        },
                        {
                            "weight": -0.2045908667820463
                        },
                        {
                            "weight": 0.27575491231668503
                        },
                        {
                            "weight": -0.23429029264221446
                        },
                        {
                            "weight": -0.19517328995055205
                        },
                        {
                            "weight": -0.1639277521446011
                        },
                        {
                            "weight": 0.2400533554191019
                        },
                        {
                            "weight": 0.4019990324890237
                        },
                        {
                            "weight": -0.05981146680648042
                        },
                        {
                            "weight": -0.13346915992138397
                        },
                        {
                            "weight": -0.2516272806896024
                        },
                        {
                            "weight": -0.4143504260081567
                        },
                        {
                            "weight": 0.37410812520147685
                        },
                        {
                            "weight": 0.200260240044566
                        },
                        {
                            "weight": -0.15053359555105378
                        },
                        {
                            "weight": 0.1783957195553909
                        },
                        {
                            "weight": -0.10967663812901668
                        },
                        {
                            "weight": 0.4660293155796962
                        },
                        {
                            "weight": 0.49342223409257
                        },
                        {
                            "weight": -0.4663468219415968
                        },
                        {
                            "weight": -0.3129582822941981
                        },
                        {
                            "weight": -0.4067250149914646
                        },
                        {
                            "weight": -0.12471268960959869
                        },
                        {
                            "weight": -0.3228688418506034
                        },
                        {
                            "weight": -0.2555338942331885
                        },
                        {
                            "weight": -0.30213913139055437
                        },
                        {
                            "weight": 0.23366786534137451
                        },
                        {
                            "weight": 0.35959344326965215
                        },
                        {
                            "weight": 0.3996275119574869
                        },
                        {
                            "weight": 0.3324644978775012
                        },
                        {
                            "weight": 0.14052339767595912
                        },
                        {
                            "weight": 0.1500483904406653
                        },
                        {
                            "weight": -0.37212636890454515
                        },
                        {
                            "weight": -0.08372169046836053
                        },
                        {
                            "weight": 0.4057580982594555
                        },
                        {
                            "weight": -0.07729965885509721
                        },
                        {
                            "weight": 0.24235055738703837
                        },
                        {
                            "weight": 0.14581145321755273
                        },
                        {
                            "weight": -0.17530062682707825
                        },
                        {
                            "weight": -0.31746090988044673
                        },
                        {
                            "weight": -0.487657707164836
                        },
                        {
                            "weight": 0.06307209248331935
                        },
                        {
                            "weight": -0.24181133542759875
                        },
                        {
                            "weight": 0.3764504180366408
                        },
                        {
                            "weight": -0.23666766793311933
                        },
                        {
                            "weight": 0.09765506902134746
                        },
                        {
                            "weight": 0.05484613713102704
                        },
                        {
                            "weight": 0.14365569393786404
                        },
                        {
                            "weight": 0.06368438460104364
                        },
                        {
                            "weight": 0.04826837076259238
                        },
                        {
                            "weight": 0.1673088719962671
                        },
                        {
                            "weight": 0.24072610230684566
                        },
                        {
                            "weight": 0.13154335577112786
                        },
                        {
                            "weight": -0.45740381807433617
                        },
                        {
                            "weight": 0.40785726091724694
                        },
                        {
                            "weight": 0.36600946153793923
                        },
                        {
                            "weight": -0.2695429490038859
                        },
                        {
                            "weight": 0.1415251257976169
                        },
                        {
                            "weight": 0.2256029043465867
                        },
                        {
                            "weight": -0.36991543750740374
                        },
                        {
                            "weight": -0.02601037678588669
                        },
                        {
                            "weight": -0.13387369797745424
                        },
                        {
                            "weight": 0.27013295293326156
                        },
                        {
                            "weight": 0.09186325430956821
                        },
                        {
                            "weight": 0.27240461155418516
                        },
                        {
                            "weight": 0.17589105073171252
                        },
                        {
                            "weight": -0.4854364050065337
                        },
                        {
                            "weight": 0.014755168941223529
                        },
                        {
                            "weight": -0.17829749651173943
                        },
                        {
                            "weight": -0.17073703183361189
                        },
                        {
                            "weight": 0.1872942590607769
                        },
                        {
                            "weight": -0.17595520321557073
                        },
                        {
                            "weight": 0.38233506064970746
                        },
                        {
                            "weight": 0.4354829236331782
                        },
                        {
                            "weight": -0.2995047856399346
                        },
                        {
                            "weight": -0.3543326077444165
                        },
                        {
                            "weight": 0.03313799265452566
                        },
                        {
                            "weight": 0.24534135195209705
                        },
                        {
                            "weight": 0.2793230861934476
                        },
                        {
                            "weight": -0.40317762320543526
                        },
                        {
                            "weight": -0.20639027774631524
                        },
                        {
                            "weight": -0.053368042271289995
                        }
                    ]
                },
                {
                    "Weights": [
                        {
                            "weight": 0.3194271801083475
                        },
                        {
                            "weight": -0.35852221177356425
                        },
                        {
                            "weight": 0.23540573955765254
                        },
                        {
                            "weight": 0.28116253956275183
                        },
                        {
                            "weight": 0.19968519111149252
                        },
                        {
                            "weight": -0.12306913510573525
                        },
                        {
                            "weight": 0.00676544390933842
                        },
                        {
                            "weight": 0.31976975360408877
                        },
                        {
                            "weight": 0.34092048856938273
                        },
                        {
                            "weight": 0.3628917459318841
                        },
                        {
                            "weight": 0.08990270607634576
                        },
                        {
                            "weight": -0.06721625758205363
                        },
                        {
                            "weight": 0.1352963570250647
                        },
                        {
                            "weight": -0.23420624319194172
                        },
                        {
                            "weight": -0.06265266212758264
                        },
                        {
                            "weight": -0.34994847449471633
                        },
                        {
                            "weight": 0.07749626029631884
                        },
                        {
                            "weight": 0.2566103060388054
                        },
                        {
                            "weight": 0.32734578502706524
                        },
                        {
                            "weight": 0.39154105708074805
                        },
                        {
                            "weight": 0.13894536668851287
                        },
                        {
                            "weight": 0.26282870819923865
                        },
                        {
                            "weight": -0.40796372855918656
                        },
                        {
                            "weight": 0.2746127589440963
                        },
                        {
                            "weight": -0.20403329960724031
                        },
                        {
                            "weight": 0.32737762339291054
                        },
                        {
                            "weight": 0.0539358451375439
                        },
                        {
                            "weight": -0.11721092281267553
                        },
                        {
                            "weight": -0.3790126548144094
                        },
                        {
                            "weight": 0.4905678028662539
                        },
                        {
                            "weight": -0.28966244371126515
                        },
                        {
                            "weight": -0.46385957678959683
                        },
                        {
                            "weight": -0.03020405747937227
                        },
                        {
                            "weight": 0.4357432958463875
                        },
                        {
                            "weight": 0.3073029632341596
                        },
                        {
                            "weight": -0.33051886682888443
                        },
                        {
                            "weight": -0.18732583925934776
                        },
                        {
                            "weight": -0.18593159331750664
                        },
                        {
                            "weight": 0.47925088677520444
                        },
                        {
                            "weight": -0.34640535115096965
                        },
                        {
                            "weight": -0.32303984784662715
                        },
                        {
                            "weight": 0.0691535928515502
                        },
                        {
                            "weight": 0.07637839126697665
                        },
                        {
                            "weight": 0.3022565091784375
                        },
                        {
                            "weight": 0.3249473496596085
                        },
                        {
                            "weight": -0.48627427132161066
                        },
                        {
                            "weight": 0.44230803514472583
                        },
                        {
                            "weight": -0.09755639050507747
                        },
                        {
                            "weight": 0.2603360351781995
                        },
                        {
                            "weight": 0.2696538197107864
                        },
                        {
                            "weight": -0.20601533342432943
                        },
                        {
                            "weight": -0.10071859859429233
                        },
                        {
                            "weight": 0.03248252744902036
                        },
                        {
                            "weight": -0.12397906198351599
                        },
                        {
                            "weight": -0.3261058401112006
                        },
                        {
                            "weight": 0.31844922830278477
                        },
                        {
                            "weight": -0.2966014390516102
                        },
                        {
                            "weight": 0.2178300050263433
                        },
                        {
                            "weight": -0.2987616949708954
                        },
                        {
                            "weight": -0.18561409386601951
                        },
                        {
                            "weight": 0.2083978078925972
                        },
                        {
                            "weight": -0.0984241386821606
                        },
                        {
                            "weight": -0.15947367019461173
                        },
                        {
                            "weight": -0.32180625004777974
                        },
                        {
                            "weight": -0.16268084283577317
                        },
                        {
                            "weight": -0.3521707074214568
                        },
                        {
                            "weight": -0.1623251164156595
                        },
                        {
                            "weight": 0.139993317904879
                        },
                        {
                            "weight": -0.04810230073896343
                        },
                        {
                            "weight": -0.18307423010145973
                        },
                        {
                            "weight": 0.2835879667539093
                        },
                        {
                            "weight": 0.11885785141440941
                        },
                        {
                            "weight": 0.37607936275009035
                        },
                        {
                            "weight": -0.14003364244011868
                        },
                        {
                            "weight": -0.07888563986815778
                        },
                        {
                            "weight": 0.20102671194869415
                        },
                        {
                            "weight": -0.13630791330072467
                        },
                        {
                            "weight": -0.13657760518443657
                        },
                        {
                            "weight": -0.39652967855638344
                        },
                        {
                            "weight": -0.37597187858352993
                        },
                        {
                            "weight": -0.3669237859346549
                        },
                        {
                            "weight": -0.11254501198071287
                        },
                        {
                            "weight": 0.013309522822177788
                        },
                        {
                            "weight": 0.15555874197537023
                        },
                        {
                            "weight": 0.2534759260357712
                        },
                        {
                            "weight": 0.17720368271097708
                        },
                        {
                            "weight": -0.025992030182849624
                        },
                        {
                            "weight": 0.446874486984161
                        },
                        {
                            "weight": -0.1049663122626796
                        },
                        {
                            "weight": 0.16524627484625498
                        },
                        {
                            "weight": -0.23873960734286326
                        },
                        {
                            "weight": -0.3965685048310871
                        },
                        {
                            "weight": -0.4331778638359056
                        },
                        {
                            "weight": 0.09178672246252506
                        },
                        {
                            "weight": -0.22837475487886683
                        },
                        {
                            "weight": -0.10585870667167879
                        },
                        {
                            "weight": 0.2296160150410682
                        },
                        {
                            "weight": 0.09930012870547378
                        },
                        {
                            "weight": -0.46586538922780446
                        },
                        {
                            "weight": -0.3184862861588999
                        }
                    ]
                },
                {
                    "Weights": [
                        {
                            "weight": -0.43938445229054635
                        },
                        {
                            "weight": -0.011291614538660066
                        },
                        {
                            "weight": 0.2823052613541043
                        },
                        {
                            "weight": -0.3323110653750184
                        },
                        {
                            "weight": -0.2885140746126482
                        },
                        {
                            "weight": -0.016668026697201688
                        },
                        {
                            "weight": 0.0213810213242569
                        },
                        {
                            "weight": 0.06490832020291515
                        },
                        {
                            "weight": 0.07680229474641498
                        },
                        {
                            "weight": 0.13540914274072702
                        },
                        {
                            "weight": 0.1879845347292649
                        },
                        {
                            "weight": 0.454257282765702
                        },
                        {
                            "weight": -0.35128133489809993
                        },
                        {
                            "weight": -0.15645672375636954
                        },
                        {
                            "weight": 0.2077332083404685
                        },
                        {
                            "weight": 0.3159223482738819
                        },
                        {
                            "weight": 0.3075512460607809
                        },
                        {
                            "weight": 0.1546076948636248
                        },
                        {
                            "weight": -0.2890439644498024
                        },
                        {
                            "weight": -0.027202479553968872
                        },
                        {
                            "weight": 0.4058680875207614
                        },
                        {
                            "weight": -0.1956124692808895
                        },
                        {
                            "weight": 0.029619656610125444
                        },
                        {
                            "weight": -0.0023451900167135165
                        },
                        {
                            "weight": 0.06601277584024368
                        },
                        {
                            "weight": 0.4137609499384468
                        },
                        {
                            "weight": -0.27272917543665
                        },
                        {
                            "weight": -0.33468709545428266
                        },
                        {
                            "weight": 0.4378955607106423
                        },
                        {
                            "weight": -0.10121546113454527
                        },
                        {
                            "weight": -0.42846119685026873
                        },
                        {
                            "weight": 0.24561813777574248
                        },
                        {
                            "weight": -0.3108438963400404
                        },
                        {
                            "weight": 0.34384406450383553
                        },
                        {
                            "weight": 0.40330707286172873
                        },
                        {
                            "weight": -0.10935797095268868
                        },
                        {
                            "weight": -0.17282396265437078
                        },
                        {
                            "weight": -0.07531190627501899
                        },
                        {
                            "weight": 0.4455503497112312
                        },
                        {
                            "weight": 0.39397833209204414
                        },
                        {
                            "weight": -0.43990276353429203
                        },
                        {
                            "weight": 0.13353488397949143
                        },
                        {
                            "weight": 0.34823561439674144
                        },
                        {
                            "weight": -0.3011840984323919
                        },
                        {
                            "weight": 0.4670781602231219
                        },
                        {
                            "weight": 0.055968822276205143
                        },
                        {
                            "weight": -0.4852617506195147
                        },
                        {
                            "weight": 0.27462940582289797
                        },
                        {
                            "weight": -0.28942348332117473
                        },
                        {
                            "weight": -0.2843057150693171
                        },
                        {
                            "weight": -0.25257307419207553
                        },
                        {
                            "weight": -0.3835553958004133
                        },
                        {
                            "weight": 0.01008181564979338
                        },
                        {
                            "weight": 0.2670465828790546
                        },
                        {
                            "weight": 0.10409941418287327
                        },
                        {
                            "weight": -0.42390540850996294
                        },
                        {
                            "weight": 0.18080753235649671
                        },
                        {
                            "weight": 0.32137023874622317
                        },
                        {
                            "weight": -0.2685925039642455
                        },
                        {
                            "weight": 0.118703093067139
                        },
                        {
                            "weight": -0.2798452228493268
                        },
                        {
                            "weight": -0.20705370081451424
                        },
                        {
                            "weight": -0.1356787696181232
                        },
                        {
                            "weight": -0.10068911872836256
                        },
                        {
                            "weight": -0.3632096367716834
                        },
                        {
                            "weight": -0.2323716972173991
                        },
                        {
                            "weight": 0.27995291031894876
                        },
                        {
                            "weight": -0.04603359896504955
                        },
                        {
                            "weight": 0.1823163969685866
                        },
                        {
                            "weight": 0.22550325956917527
                        },
                        {
                            "weight": -0.1520552673340101
                        },
                        {
                            "weight": 0.23241363343429455
                        },
                        {
                            "weight": -0.14096185691233815
                        },
                        {
                            "weight": -0.30381965293726865
                        },
                        {
                            "weight": 0.4212295350019025
                        },
                        {
                            "weight": -0.17388369715022095
                        },
                        {
                            "weight": 0.2421491693389365
                        },
                        {
                            "weight": 0.4259677848433926
                        },
                        {
                            "weight": -0.39925429178832766
                        },
                        {
                            "weight": 0.44272568647876653
                        },
                        {
                            "weight": -0.3583379306869292
                        },
                        {
                            "weight": -0.16182736551939852
                        },
                        {
                            "weight": -0.4408297097826515
                        },
                        {
                            "weight": 0.14174388542386884
                        },
                        {
                            "weight": -0.39478078310134856
                        },
                        {
                            "weight": 0.1532697044002217
                        },
                        {
                            "weight": 0.207838476913906
                        },
                        {
                            "weight": 0.27602674925514814
                        },
                        {
                            "weight": -0.025360057314559814
                        },
                        {
                            "weight": 0.42924597294966027
                        },
                        {
                            "weight": -0.1052701581387176
                        },
                        {
                            "weight": 0.18479472029711808
                        },
                        {
                            "weight": -0.2778077283258586
                        },
                        {
                            "weight": 0.24905107270416393
                        },
                        {
                            "weight": -0.41589439889224916
                        },
                        {
                            "weight": -0.151017365097542
                        },
                        {
                            "weight": -0.4833206249742399
                        },
                        {
                            "weight": 0.35405851142669964
                        },
                        {
                            "weight": 0.2929490359374084
                        },
                        {
                            "weight": 0.18899577199434658
                        }
                    ]
                },
                {
                    "Weights": [
                        {
                            "weight": 0.23649111282848345
                        },
                        {
                            "weight": 0.4779407575903184
                        },
                        {
                            "weight": 0.4285999140835366
                        },
                        {
                            "weight": -0.17292588433387035
                        },
                        {
                            "weight": -0.15736106003046085
                        },
                        {
                            "weight": -0.2452837830666843
                        },
                        {
                            "weight": -0.43077671545593843
                        },
                        {
                            "weight": -0.23139327564807294
                        },
                        {
                            "weight": -0.15453807485501192
                        },
                        {
                            "weight": -0.4880510294381767
                        },
                        {
                            "weight": -0.09973120633500215
                        },
                        {
                            "weight": 0.1736345596255895
                        },
                        {
                            "weight": -0.43888073922082815
                        },
                        {
                            "weight": -0.45798732137213805
                        },
                        {
                            "weight": 0.26885377652424103
                        },
                        {
                            "weight": 0.20438896517939342
                        },
                        {
                            "weight": 0.23985115554176795
                        },
                        {
                            "weight": 0.04488052577938917
                        },
                        {
                            "weight": -0.32097109213516634
                        },
                        {
                            "weight": 0.16909712803042354
                        },
                        {
                            "weight": 0.4296103676406715
                        },
                        {
                            "weight": 0.3538236281619518
                        },
                        {
                            "weight": 0.381289399704565
                        },
                        {
                            "weight": 0.17866143988383065
                        },
                        {
                            "weight": 0.42792922926970256
                        },
                        {
                            "weight": -0.269727965392977
                        },
                        {
                            "weight": 0.18534081537059555
                        },
                        {
                            "weight": 0.2819877402353975
                        },
                        {
                            "weight": -0.47677892991657317
                        },
                        {
                            "weight": -0.12566341309606255
                        },
                        {
                            "weight": -0.1384504892297324
                        },
                        {
                            "weight": -0.3458851613131748
                        },
                        {
                            "weight": 0.2857459923325786
                        },
                        {
                            "weight": -0.2098505751461957
                        },
                        {
                            "weight": -0.028811045647045175
                        },
                        {
                            "weight": -0.3716150681588869
                        },
                        {
                            "weight": 0.03486564178712004
                        },
                        {
                            "weight": 0.030412239358021065
                        },
                        {
                            "weight": -0.11300834380695984
                        },
                        {
                            "weight": 0.3703275669321081
                        },
                        {
                            "weight": 0.03236120991984437
                        },
                        {
                            "weight": 0.277260449858038
                        },
                        {
